6
30
0.2163888 -0.9110594 0.119856 0.7415938 0.2215477 -0.1698157 -0.3979892 -0.915731 0.3576295 0.9070587 -0.2998964 -0.07873142 0.898313 -0.4195591 -0.2970096 -0.5699427 -0.4557353 0.6414664 -0.2268418 -0.9035578 0.8239245 0.8427472 7.510185E-06 -0.1306919 0.5993087 0.8709335 0.4862065 -0.717361 -0.5639539 -0.3956336 
-0.9279051 -0.349146 -0.961158 0.7597528 -0.0878998 0.6290097 0.522619 -0.3202683 0.4186072 0.4595418 -0.06309283 0.08664143 -0.4383773 -0.8813355 0.1282395 -0.1813129 -0.4420933 0.2497021 -0.0198673 -0.1455523 -0.4696277 0.7482665 0.1241018 -0.6235821 -0.8415375 0.7420001 -0.7678642 0.2604224 -0.3570453 0.1894799 
0.3384032 -0.7171211 -0.01447737 0.1555742 -0.7724307 -0.2841522 -0.1992885 0.1109217 -0.6264193 -0.5848539 -0.7396336 0.03173339 -0.6672108 0.1929108 0.0224098 -0.4174951 0.8396528 0.4971146 0.6282701 0.06347811 0.3711729 0.9617405 0.3417117 -0.8804471 0.2878849 0.6915617 0.007321715 0.9045272 0.5001807 0.7109337 
-0.8154948 -0.2284566 0.9162621 0.1591667 -0.1171917 -0.8655736 -0.1528352 0.01389635 0.4006891 0.4595902 -0.5815341 0.9546108 -0.2844847 0.6291599 -0.6346531 -0.8688636 0.8411198 0.241094 0.8881652 -0.4553822 0.5615151 0.6503079 -0.8436062 0.7583854 0.8672736 -0.6301892 0.1473655 0.5050266 -0.2986163 -0.4787933 
0.6008439 -0.2182325 0.8440211 0.4958443 -0.7599983 0.69502 0.8861187 -0.3856219 -0.8996489 0.8606033 -0.54458 -0.1470433 -0.6835964 0.142022 -0.9872355 -0.3913888 -0.06888258 0.2559321 0.9100225 0.7980866 0.4205749 0.5128021 0.6029987 0.5661924 0.5445361 -0.1789511 0.834929 -0.6922679 -0.7924452 0.5310128 
-0.2911431 -0.4306124 -0.08931768 -0.1583217 0.4777612 -0.8575003 -0.103922 0.01140773 0.1941682 -0.153248 -0.7545681 -0.4726726 -0.6340129 0.6885355 -0.8622167 0.4912557 -0.1058248 0.469717 -0.8233979 -0.2316192 0.6892576 -0.822834 0.2519893 -0.1959606 -0.5015697 0.8468804 0.5919762 -0.5779629 -0.4249173 0.317827 
30
1
0.5490072 
0.8666735 
0.8881452 
-0.5808699 
-0.5560687 
-0.7718146 
-0.4705027 
0.2907505 
-0.2136678 
-0.09948337 
0.08161438 
0.6112101 
0.2936814 
0.6297388 
0.3154077 
-0.8099649 
0.9855752 
-0.964083 
-0.9881086 
0.1765319 
0.6395915 
0.4204125 
-0.601079 
0.09401333 
0.2980072 
-0.761477 
0.6060715 
-0.6542625 
0.8547828 
0.9277265 
6
30
0.2163888 -0.9110594 0.119856 0.7415938 0.2215477 -0.1698157 -0.3979892 -0.915731 0.3576295 0.9070587 -0.2998964 -0.07873142 0.898313 -0.4195591 -0.2970096 -0.5699427 -0.4557353 0.6414664 -0.2268418 -0.9035578 0.8239245 0.8427472 7.510185E-06 -0.1306919 0.5993087 0.8709335 0.4862065 -0.717361 -0.5639539 -0.3956336 
-0.9279051 -0.349146 -0.961158 0.7597528 -0.0878998 0.6290097 0.522619 -0.3202683 0.4186072 0.4595418 -0.06309283 0.08664143 -0.4383773 -0.8813355 0.1282395 -0.1813129 -0.4420933 0.2497021 -0.0198673 -0.1455523 -0.4696277 0.7482665 0.1241018 -0.6235821 -0.8415375 0.7420001 -0.7678642 0.2604224 -0.3570453 0.1894799 
0.3384032 -0.7171211 -0.01447737 0.1555742 -0.7724307 -0.2841522 -0.1992885 0.1109217 -0.6264193 -0.5848539 -0.7396336 0.03173339 -0.6672108 0.1929108 0.0224098 -0.4174951 0.8396528 0.4971146 0.6282701 0.06347811 0.3711729 0.9617405 0.3417117 -0.8804471 0.2878849 0.6915617 0.007321715 0.9045272 0.5001807 0.7109337 
-0.8154948 -0.2284566 0.9162621 0.1591667 -0.1171917 -0.8655736 -0.1528352 0.01389635 0.4006891 0.4595902 -0.5815341 0.9546108 -0.2844847 0.6291599 -0.6346531 -0.8688636 0.8411198 0.241094 0.8881652 -0.4553822 0.5615151 0.6503079 -0.8436062 0.7583854 0.8672736 -0.6301892 0.1473655 0.5050266 -0.2986163 -0.4787933 
0.6008439 -0.2182325 0.8440211 0.4958443 -0.7599983 0.69502 0.8861187 -0.3856219 -0.8996489 0.8606033 -0.54458 -0.1470433 -0.6835964 0.142022 -0.9872355 -0.3913888 -0.06888258 0.2559321 0.9100225 0.7980866 0.4205749 0.5128021 0.6029987 0.5661924 0.5445361 -0.1789511 0.834929 -0.6922679 0.5580435 0.5310128 
-0.2911431 -0.4306124 -0.08931768 -0.1583217 0.4777612 -0.8575003 -0.103922 0.01140773 0.1941682 -0.153248 -0.7545681 -0.4726726 -0.6340129 0.6885355 -0.8622167 0.4912557 -0.8773026 0.469717 -0.8233979 -0.2316192 0.6892576 -0.1168858 0.2519893 -0.1959606 0.5495796 0.8468804 0.5919762 -0.5779629 -0.4249173 0.317827 
30
1
0.5490072 
-0.09500134 
0.8881452 
-0.5808699 
-0.5560687 
-0.7718146 
-0.4705027 
0.2907505 
-0.2136678 
-0.09948337 
0.08161438 
0.6112101 
0.2936814 
0.6297388 
0.3154077 
-0.8099649 
0.9855752 
-0.964083 
-0.9881086 
0.1765319 
0.6395915 
0.4204125 
-0.601079 
0.09401333 
0.2980072 
-0.761477 
0.6060715 
-0.6542625 
0.8547828 
0.9277265 
6
30
0.4492755 0.9833069 -0.1215659 -0.7902153 0.1491963 -0.4048592 0.5205789 -0.0276159 -0.6425495 -0.5905852 0.6462591 0.2788367 0.4128191 -0.09217322 0.3315105 -0.03514493 -0.9419622 -0.3438283 -0.9359329 0.101787 0.09573758 -0.4581455 0.9935117 0.4086723 0.3647508 0.1854585 -0.1309053 -0.2863697 0.5536919 -0.2044793 
0.4815728 -0.5338383 -0.4641637 -0.536783 0.2980027 0.8240762 0.07351673 -0.930747 0.1080323 0.8452196 0.8081269 -0.725553 -0.9613521 -0.5023 0.1647903 -0.1043299 -0.7680292 0.9038568 -0.6221452 -0.1245784 -0.02421272 0.2394155 -0.6774247 -0.4376658 0.005669713 -0.5642385 0.2097622 0.6959891 0.8954372 -0.7332401 
-0.8718684 0.6674652 -0.2602834 0.210971 0.00422442 0.1603111 0.5265248 0.5249071 -0.2491428 0.4272065 0.9489527 0.1178914 -0.3574384 -0.8452878 -0.9309483 0.7598336 -0.7306175 0.453464 -0.2344164 -0.2139095 -0.8119235 -0.3117741 0.6832609 0.02100003 0.3300335 -0.4245437 -0.3499306 -0.2603325 0.8566856 -0.8401709 
0.3237774 0.4651131 -0.53878 0.8480635 -0.8927121 0.03432381 0.6736028 0.3101773 -0.4045411 0.8533752 -0.3830353 0.4803569 0.7758396 -0.1225404 0.8873487 0.8989787 -0.2078608 0.3451495 0.5075502 0.6193099 -0.375945 -0.5554876 0.3160441 0.3482253 0.5886488 0.880964 0.4586003 -0.9903176 0.1322392 -0.8163104 
-0.4181229 0.02125537 -0.4200236 -0.72877 -0.4147042 0.2175037 0.6343408 0.07373178 0.7833643 0.3748908 -0.5850105 0.7748265 0.8415418 -0.3325588 -0.1440033 -0.1007174 -0.57126 -0.9905219 0.562829 -0.6547554 -0.1697077 -0.9898524 -0.6886227 -0.2532874 0.2167703 0.8640811 0.1025881 0.9708605 0.2857754 -0.8077703 
0.2095178 -0.4195951 0.4190387 0.7593558 -0.04621589 -0.134555 0.6142418 0.07319796 -0.5117953 0.3427362 -0.2772833 0.8656976 -0.6444306 -0.9519598 -0.2960154 0.2440735 0.9295158 0.418086 0.1670772 -0.9654727 0.6278152 0.7872257 -0.2073108 -0.3635756 -0.2904609 0.2618968 -0.02690136 -0.2825657 -0.6041689 0.5328333 
30
1
-0.3398944 
0.5735233 
-0.699995 
-0.5528555 
0.5502427 
0.1803688 
0.2883866 
0.7686567 
-0.1687752 
-0.6807284 
-0.7956088 
0.1254491 
0.6933534 
-0.2302855 
-0.9989352 
0.9175992 
0.06746686 
-0.6526728 
0.8309734 
0.8306665 
0.3302564 
-0.7469406 
0.6145368 
-0.5344524 
0.7967448 
0.7698762 
0.9415138 
0.5874772 
0.8286769 
-0.09028995 
6
30
0.4492755 0.9833069 -0.1215659 -0.7902153 0.1491963 -0.4048592 0.5205789 -0.0276159 -0.6425495 -0.5905852 0.6462591 0.2788367 0.4128191 -0.09217322 0.3315105 -0.03514493 -0.9419622 -0.3438283 -0.9359329 0.101787 0.09573758 -0.4581455 0.9935117 0.4086723 0.3647508 0.1854585 -0.1309053 -0.2863697 0.5536919 -0.2044793 
0.4815728 -0.5338383 -0.4641637 -0.536783 0.2980027 0.8240762 0.07351673 -0.930747 0.1080323 0.8452196 0.8081269 -0.725553 -0.9613521 -0.5023 0.1647903 -0.1043299 -0.7680292 0.9038568 -0.6221452 -0.1245784 -0.02421272 0.2394155 -0.6774247 -0.4376658 0.005669713 -0.5642385 0.2097622 0.6959891 0.8954372 -0.7332401 
-0.8718684 0.6674652 -0.2602834 0.210971 0.00422442 0.1603111 0.5265248 0.5249071 -0.2491428 0.4272065 0.9489527 0.1178914 -0.3574384 -0.8452878 -0.9309483 0.7598336 -0.7306175 0.453464 -0.2344164 -0.2139095 -0.8119235 -0.3117741 0.6832609 0.02100003 0.3300335 -0.4245437 -0.3499306 -0.2603325 0.8566856 -0.8401709 
0.3237774 0.4651131 -0.53878 0.8480635 -0.8927121 0.03432381 0.6736028 0.3101773 -0.4045411 0.8533752 -0.3830353 0.4803569 0.7758396 -0.1225404 0.8873487 0.8989787 -0.2078608 0.3451495 0.5075502 0.6193099 -0.375945 -0.5554876 0.3160441 0.3482253 0.5886488 0.880964 0.4586003 -0.9903176 0.1322392 -0.8163104 
-0.4181229 0.02125537 -0.4200236 -0.72877 -0.4147042 0.2175037 0.6343408 0.07373178 0.7833643 0.3748908 -0.5850105 0.7748265 0.8415418 -0.3325588 -0.1440033 -0.1007174 -0.57126 -0.9905219 0.562829 -0.6547554 -0.1697077 -0.9898524 -0.6886227 -0.2532874 0.2167703 0.8640811 0.1025881 0.9708605 0.2857754 -0.8077703 
0.2095178 -0.4195951 0.4190387 0.7593558 -0.04621589 -0.134555 0.6142418 0.07319796 -0.5117953 0.3427362 -0.2772833 0.8656976 -0.6444306 -0.9519598 -0.2960154 0.2440735 0.9295158 0.418086 0.1670772 -0.9654727 0.6278152 0.7872257 -0.2073108 -0.3635756 -0.2904609 0.2618968 -0.02690136 -0.2825657 -0.6041689 0.5328333 
30
1
-0.3398944 
0.5735233 
-0.699995 
-0.5528555 
0.5502427 
0.1803688 
0.2883866 
0.7686567 
-0.1687752 
-0.6807284 
-0.7956088 
0.1254491 
0.6933534 
-0.2302855 
-0.9989352 
0.9175992 
0.06746686 
-0.6526728 
0.8309734 
0.8306665 
0.3302564 
-0.7469406 
0.6145368 
-0.5344524 
0.7967448 
0.7698762 
0.9415138 
0.5874772 
0.8286769 
-0.09028995 
6
30
-0.9528975 -0.1130747 0.6633503 0.5369735 0.3356456 0.1890591 -0.3193156 -0.3529493 0.4711766 0.3198299 0.5775242 -0.8862128 -0.3967391 -0.3235265 0.9184487 -0.4044517 -0.8689945 0.3905544 -0.1714438 -0.2738775 0.03382027 -0.01861346 -0.4479374 0.352993 0.4016118 -0.5413415 0.6212413 0.879559 -0.4592885 0.04320443 
-0.5821927 -0.6660242 0.9845688 0.7799935 0.9365079 -0.1305262 -0.8975794 0.02429521 0.3415007 -0.5217569 -0.8206294 0.5965273 -0.8393934 -0.06235087 -0.7347269 -0.2133435 0.257329 -0.1679858 -0.5634348 -0.1767079 -0.03000152 -0.02035439 0.7761242 0.3343711 0.8413985 0.5563853 0.6139381 0.452584 -0.8925974 -0.2864169 
0.08368742 0.8794692 0.7196639 0.6731343 -0.5734935 -0.8915524 0.6914046 0.9357338 -0.8607259 0.08914483 -0.7561817 0.3825137 0.4933195 0.01139319 0.744276 -0.7246485 0.007540584 0.3054325 -0.4003819 0.1560832 0.279 0.7686229 0.5020704 -0.9646814 -0.772177 0.3675976 -0.1499306 0.4437322 0.6319916 0.5182068 
0.8989682 -0.3311127 0.3459093 -0.6430333 -0.7738802 0.4539249 0.8512855 -0.1524907 -0.7744119 -0.6405203 -0.3127853 -0.1604491 0.2203912 0.02087271 0.7825582 0.1992701 -0.2522067 0.8378396 0.3473615 -0.04493868 -0.7505202 -0.3694087 0.6128964 -0.480538 0.1207651 0.04403555 -0.464316 -0.7588861 0.06040084 0.1647643 
-0.4525021 -0.5150042 0.8509715 -0.3237308 -0.8173678 -0.7934942 -0.35188 0.4134535 0.3095231 -0.5551932 0.0471586 -0.5482843 0.3270094 -0.8283708 -0.0627507 -0.9364288 0.6378152 -0.3878731 0.328696 0.2647142 -0.07796156 0.1098925 0.1703464 -0.9838996 0.5547588 0.3436598 -0.884501 -0.2636489 -0.6721153 0.5554979 
0.2655677 -0.336233 0.2974512 0.5037096 0.7256 0.2885723 -0.610965 0.710804 0.1167868 -0.677886 -0.4946443 0.3778162 -0.6788607 0.2161638 0.4452531 0.3695621 -0.4420139 -0.4360663 0.7493153 0.4697087 -0.2423407 0.255598 0.3522958 -0.06209815 0.7897928 0.5750804 -0.7119634 -0.5073299 -0.4070238 0.1620432 
30
1
-0.2605699 
-0.9416873 
-0.2582008 
-0.8775165 
-0.7946811 
0.6303477 
0.03799641 
0.9408791 
-0.9208324 
-0.2652396 
0.9540074 
-0.4685079 
0.3763966 
-0.168214 
0.8059618 
0.6174598 
-0.6381764 
0.6595469 
0.3263888 
0.8048997 
0.5786417 
-0.8030589 
-0.5657935 
0.8987336 
0.2584343 
0.1015097 
-0.7585993 
0.4687423 
-0.08072007 
0.09796679 
6
30
-0.9528975 -0.1130747 0.6633503 0.5369735 0.3356456 0.1890591 -0.3193156 -0.3529493 0.4711766 0.3198299 0.5775242 -0.8862128 -0.3967391 -0.3235265 0.9184487 -0.4044517 -0.8689945 0.3905544 -0.1714438 -0.2738775 0.03382027 -0.01861346 -0.4479374 0.352993 0.4016118 -0.5413415 0.6212413 0.879559 0.5579371 0.04320443 
-0.5821927 0.8101981 0.9845688 0.7799935 0.9365079 -0.1305262 -0.8975794 0.02429521 -0.2432166 -0.5217569 -0.8206294 0.5965273 -0.8393934 -0.06235087 -0.3318955 -0.2133435 0.257329 -0.1679858 -0.5634348 -0.1767079 -0.03000152 -0.02035439 0.7761242 0.3343711 0.8413985 0.5563853 0.6139381 0.452584 -0.8925974 -0.2864169 
0.08368742 0.8794692 0.7196639 0.6731343 -0.5734935 -0.8915524 0.6914046 0.9357338 -0.8607259 0.08914483 -0.7561817 0.3825137 0.4933195 0.01139319 0.744276 -0.6786878 0.007540584 0.3054325 -0.4003819 0.1560832 0.279 0.7686229 0.5020704 -0.9646814 -0.772177 0.3675976 -0.1499306 0.4437322 0.6319916 0.5182068 
0.8989682 -0.3311127 0.3459093 -0.6430333 -0.7738802 0.4539249 0.1449491 -0.1524907 -0.7744119 -0.6405203 -0.3127853 -0.1604491 0.2203912 0.6104407 0.7825582 0.1992701 -0.2522067 0.8378396 0.3473615 -0.04493868 -0.7505202 -0.3694087 0.0736748 -0.5121679 0.1207651 0.04403555 -0.464316 0.1641566 0.06040084 -0.8296156 
-0.4525021 -0.5150042 -0.5902925 -0.3237308 -0.8173678 -0.7934942 -0.04651845 0.4134535 -0.9347513 -0.5551932 0.0471586 -0.5482843 0.3270094 -0.6996136 -0.0627507 -0.9364288 0.6027405 -0.3878731 0.328696 0.2647142 -0.07796156 0.7603834 0.1703464 -0.6664238 0.5547588 0.3436598 -0.884501 -0.7910392 0.4335952 -0.2107757 
0.2655677 -0.336233 0.2974512 0.5037096 0.7256 0.2885723 -0.610965 -0.2242812 -0.1690298 -0.677886 0.6454887 -0.1711525 -0.6788607 0.2161638 0.4452531 0.3695621 -0.4420139 -0.4360663 0.7493153 0.4697087 -0.2423407 -0.8653913 0.3522958 -0.06209815 -0.4878012 0.5750804 -0.7119634 -0.5073299 -0.4070238 0.1620432 
30
1
-0.2605699 
-0.9416873 
-0.2582008 
-0.8775165 
-0.7946811 
0.9990432 
0.03799641 
0.9408791 
0.3258981 
-0.2652396 
0.9540074 
-0.4685079 
0.2448906 
-0.168214 
0.8059618 
0.6174598 
-0.6381764 
0.6595469 
0.3263888 
0.8048997 
0.5370555 
-0.8030589 
-0.5657935 
0.8987336 
0.2584343 
0.1015097 
-0.7585993 
0.4687423 
-0.08072007 
0.2858581 
6
30
0.3270628 -0.9110594 0.119856 0.7415938 0.2215477 -0.3014709 -0.3979892 -0.915731 0.2959656 0.9070587 -0.2998964 -0.07873142 0.898313 -0.4195591 -0.2970096 -0.5699427 -0.4557353 0.6414664 -0.2268418 -0.9035578 -0.1861993 0.6104825 0.03183138 -0.1306919 0.5993087 0.8709335 0.4862065 -0.923456 -0.5639539 -0.3956336 
-0.9279051 -0.349146 -0.961158 0.7597528 -0.0878998 0.6290097 0.522619 -0.3202683 0.4504156 0.4595418 -0.06309283 0.08664143 -0.4383773 -0.8813355 0.1282395 -0.1813129 -0.4420933 0.2497021 -0.0198673 -0.1455523 -0.4696277 0.7482665 0.1241018 -0.6235821 -0.2162396 0.7420001 -0.7678642 0.2604224 -0.3570453 0.1894799 
0.3384032 -0.7171211 -0.01447737 0.1555742 0.1907665 -0.2841522 -0.1992885 -0.9985719 -0.6264193 -0.5848539 -0.7396336 0.03173339 -0.6672108 0.1929108 -0.4377152 -0.4854316 0.8396528 0.4971146 0.6282701 0.06347811 0.3711729 0.9617405 0.3417117 -0.8804471 0.2878849 0.6915617 0.9447253 0.9045272 0.5001807 0.7109337 
-0.8154948 -0.2284566 0.9162621 0.1591667 -0.1171917 -0.8655736 -0.1528352 0.01389635 0.4006891 0.4595902 -0.5815341 0.9546108 -0.2844847 0.6291599 -0.6346531 -0.8688636 0.8411198 0.241094 -0.5702462 -0.4553822 0.5615151 -0.7595789 -0.8436062 0.7583854 0.8672736 -0.6301892 0.1473655 0.5050266 -0.2986163 -0.4787933 
0.6008439 -0.2182325 0.8440211 0.4958443 -0.7599983 0.69502 0.8861187 -0.3856219 -0.8996489 0.8606033 -0.54458 -0.1470433 -0.1671897 0.142022 -0.9872355 -0.3913888 -0.06888258 0.2559321 0.9100225 0.7980866 0.4205749 0.5128021 0.6029987 0.5661924 0.5445361 -0.1789511 0.834929 -0.6922679 -0.7924452 0.5310128 
-0.2911431 -0.4306124 -0.08931768 -0.1583217 0.4777612 -0.8575003 -0.103922 0.01140773 0.4776828 -0.2913183 -0.7545681 -0.4726726 -0.6340129 0.6885355 -0.8622167 0.3838105 -0.1058248 0.469717 -0.8233979 -0.2316192 0.6892576 -0.822834 0.2519893 -0.7015042 -0.5015697 0.8468804 0.5919762 -0.5779629 -0.4249173 0.317827 
30
1
0.5490072 
0.8666735 
0.8881452 
-0.5808699 
-0.5560687 
-0.7718146 
-0.4705027 
0.2907505 
-0.2136678 
-0.09948337 
0.08161438 
0.6112101 
0.2936814 
0.6297388 
0.3154077 
-0.8099649 
0.9855752 
-0.964083 
-0.9881086 
0.1765319 
0.6395915 
0.4204125 
-0.601079 
0.09401333 
0.2980072 
-0.761477 
0.6060715 
-0.6542625 
0.8547828 
0.9277265 
6
30
0.2163888 0.1309534 0.119856 -0.4974095 -0.05493724 -0.1698157 -0.3979892 -0.915731 0.3576295 0.9070587 -0.2998964 -0.07873142 0.898313 -0.4195591 -0.2970096 -0.5699427 -0.4557353 0.6414664 -0.2268418 0.6208222 0.8239245 0.5540617 7.510185E-06 0.7824223 0.5993087 0.8709335 0.4862065 0.1413194 -0.5639539 -0.3956336 
-0.9279051 -0.349146 0.3253433 0.2114831 -0.0878998 0.6290097 0.522619 -0.3202683 0.4186072 0.4595418 0.1694974 -0.5162604 0.3615985 -0.8813355 0.1282395 -0.1813129 -0.7256777 0.6893809 0.6204731 -0.1455523 -0.4696277 0.7482665 0.1241018 -0.6235821 -0.8415375 0.7420001 -0.7678642 0.2604224 -0.3570453 0.1894799 
0.3384032 -0.7171211 -0.01447737 0.1555742 -0.7724307 -0.2841522 -0.1992885 0.1109217 -0.6264193 -0.5848539 -0.7396336 0.03173339 -0.6672108 0.1929108 0.0224098 -0.4174951 0.8396528 -0.01731241 0.6282701 -0.9104183 0.3711729 0.5739229 0.3417117 -0.8804471 0.2878849 0.6915617 0.007321715 0.9045272 0.5001807 0.7109337 
-0.8154948 -0.2284566 0.9162621 0.1591667 -0.1171917 -0.8655736 -0.1528352 0.5244384 0.6111112 0.4595902 -0.5815341 0.9546108 -0.2844847 0.3361158 -0.6346531 -0.8688636 0.8411198 0.241094 0.8881652 -0.4553822 0.4224024 0.6503079 -0.5105894 0.1181492 -0.565167 -0.6301892 0.1473655 0.5050266 0.2493232 -0.4787933 
0.6008439 -0.1884779 0.8440211 0.4958443 -0.7599983 0.69502 0.6873236 -0.3856219 -0.8996489 0.8606033 -0.54458 -0.1470433 -0.6835964 0.7576807 -0.9872355 -0.3913888 -0.06888258 0.2559321 0.9100225 0.7980866 0.4205749 0.5128021 0.6029987 0.5661924 0.5445361 0.4262366 0.7887697 -0.6922679 -0.7924452 0.5310128 
-0.2911431 -0.5758166 -0.3732716 -0.1583217 0.4777612 -0.8575003 -0.103922 0.01140773 0.1941682 -0.153248 0.9045374 -0.4726726 -0.656008 0.6885355 -0.8622167 0.4912557 0.1323856 0.469717 -0.8233979 -0.2316192 0.6892576 -0.822834 0.2519893 -0.6164742 -0.5015697 0.8468804 0.5919762 -0.2385575 -0.4249173 0.147909 
30
1
0.5545592 
0.8666735 
0.8881452 
-0.5808699 
-0.5560687 
-0.7718146 
-0.4705027 
0.2907505 
-0.2136678 
-0.09948337 
0.08161438 
-0.5013793 
0.2936814 
0.6297388 
0.3154077 
-0.8099649 
0.9855752 
-0.964083 
0.6988029 
0.1765319 
0.6395915 
0.4204125 
-0.601079 
0.09401333 
0.2980072 
-0.761477 
0.6060715 
-0.6542625 
0.8547828 
0.9277265 
6
30
-0.9528975 -0.1130747 0.6633503 0.5369735 0.3356456 0.1890591 -0.3193156 -0.3529493 0.4711766 0.3198299 0.5775242 -0.8862128 -0.3967391 -0.2828926 0.9184487 -0.4044517 -0.8689945 -0.9144006 -0.1714438 -0.2738775 0.03382027 -0.01861346 -0.4479374 0.352993 0.4016118 -0.5413415 0.6212413 -0.2417487 -0.4592885 0.04320443 
-0.5821927 -0.6660242 0.9845688 0.7799935 0.9365079 -0.1305262 -0.3262469 0.02429521 -0.2876769 -0.5217569 -0.6966634 0.5965273 -0.2392563 -0.06235087 -0.7347269 -0.2133435 0.257329 -0.1679858 -0.5634348 -0.1767079 -0.03000152 -0.02035439 0.7761242 0.3343711 0.8413985 -0.2524394 0.6139381 0.452584 -0.8925974 0.1776911 
-0.2775255 0.8794692 0.7196639 0.6731343 -0.5734935 -0.8915524 0.6914046 0.9357338 -0.8607259 0.2493824 0.2160717 0.3825137 -0.9192235 0.01139319 0.744276 -0.7246485 0.007540584 0.3054325 -0.4003819 0.1560832 0.279 -0.4044079 0.5020704 -0.9646814 -0.772177 0.3675976 -0.1499306 0.02936542 0.6319916 0.5182068 
0.350522 -0.3311127 0.3459093 -0.6430333 -0.7738802 0.4539249 0.1449491 -0.1524907 -0.5548587 -0.842392 -0.3127853 -0.1604491 0.2203912 0.6104407 0.7825582 0.1992701 -0.2522067 0.8378396 0.3473615 -0.04493868 -0.7505202 -0.3694087 0.0736748 -0.5121679 0.1207651 0.04403555 0.5197766 0.1641566 0.06040084 -0.8296156 
-0.4525021 -0.5150042 -0.5902925 -0.3237308 -0.8173678 -0.7934942 -0.04651845 0.4134535 -0.9347513 -0.5551932 0.0471586 -0.5482843 -0.9492693 -0.6996136 -0.0627507 -0.9364288 0.6027405 -0.3878731 0.328696 0.2647142 -0.07796156 0.7603834 0.1703464 -0.6664238 0.5547588 0.3436598 -0.884501 -0.7910392 0.4335952 -0.2107757 
0.2655677 -0.336233 0.2974512 0.5037096 0.7256 0.2885723 -0.610965 -0.2242812 -0.1690298 -0.677886 0.6454887 -0.1711525 -0.6788607 0.2161638 0.4452531 0.3695621 -0.4420139 -0.4360663 0.7493153 0.4697087 -0.2423407 -0.8653913 0.3522958 -0.06209815 -0.4878012 0.5750804 -0.7119634 -0.5073299 -0.4070238 -0.8683569 
30
1
-0.2605699 
-0.9416873 
-0.2582008 
-0.8775165 
-0.7946811 
0.9990432 
0.03799641 
0.9408791 
0.3258981 
-0.2652396 
0.9540074 
-0.4685079 
0.4446644 
-0.168214 
0.8059618 
0.6174598 
-0.6381764 
0.6595469 
0.3263888 
0.8048997 
0.5786417 
-0.5616913 
-0.5657935 
0.8987336 
0.2584343 
0.1015097 
-0.7585993 
0.6485043 
-0.6560674 
0.9141245 
6
30
-0.9528975 0.02732933 0.6633503 0.5369735 0.3356456 0.1890591 -0.3193156 -0.3529493 0.4711766 0.3198299 0.5775242 -0.8862128 -0.3967391 -0.3235265 0.9184487 -0.4044517 0.4929244 0.3905544 -0.5434842 -0.2738775 0.03382027 -0.01861346 -0.5359671 0.352993 0.4016118 -0.5413415 0.6212413 0.879559 -0.4592885 0.04320443 
0.6159472 -0.6660242 0.9845688 0.7799935 0.9365079 -0.1305262 -0.3262469 0.02429521 -0.2876769 -0.5217569 -0.6966634 0.5965273 -0.2392563 -0.06235087 -0.7347269 -0.2133435 0.4868314 -0.1679858 -0.5634348 -0.1767079 -0.03000152 -0.02035439 0.7761242 0.3343711 -0.7048876 -0.2524394 0.6139381 0.452584 -0.8925974 -0.2864169 
0.08368742 0.8794692 0.7196639 0.6731343 -0.5734935 -0.8915524 0.6914046 0.9357338 -0.8607259 0.2493824 0.5356817 0.3825137 -0.9192235 0.01139319 0.744276 -0.7246485 0.007540584 0.3054325 -0.4003819 0.1560832 0.279 0.5775762 -0.3122412 -0.9646814 -0.772177 0.3675976 -0.1492609 0.4437322 0.6319916 0.5182068 
0.8989682 -0.3311127 0.3459093 -0.6430333 -0.7738802 0.4539249 0.1449491 -0.1524907 -0.7744119 0.8849616 -0.3127853 -0.1604491 0.2203912 0.6104407 0.7825582 0.1992701 -0.2522067 0.8378396 0.3473615 -0.06511486 -0.7505202 -0.3694087 0.0736748 -0.5121679 0.1207651 0.04403555 -0.464316 0.1641566 0.06040084 -0.8296156 
-0.4525021 -0.5150042 -0.5902925 -0.05759966 -0.8173678 -0.7934942 -0.04651845 -0.4019293 -0.9347513 -0.5551932 0.0471586 -0.5482843 0.3270094 0.9145427 -0.0627507 -0.9364288 0.6027405 -0.3878731 0.328696 0.2647142 -0.07796156 0.7603834 0.1703464 -0.6664238 0.4091518 0.3436598 -0.884501 0.1801058 0.4335952 -0.2107757 
0.2655677 -0.336233 0.2974512 0.05121696 0.7256 0.2885723 -0.610965 -0.2242812 -0.1690298 -0.677886 -0.0259105 -0.1711525 -0.6788607 0.2161638 0.4452531 0.3695621 -0.4420139 -0.4360663 0.7493153 0.4697087 -0.2423407 -0.8653913 0.3522958 0.24567 -0.4878012 0.5750804 -0.7119634 -0.5073299 -0.4070238 0.6427553 
30
1
-0.2605699 
-0.9416873 
-0.2582008 
-0.8775165 
-0.7946811 
0.9990432 
0.03799641 
0.3926549 
0.3258981 
-0.2652396 
0.9540074 
-0.7067003 
0.2448906 
-0.168214 
0.8059618 
0.6174598 
-0.6381764 
0.6595469 
0.3263888 
0.8048997 
0.5786417 
-0.5616913 
-0.5657935 
-0.9052191 
0.2584343 
0.2693865 
0.6032503 
0.4687423 
-0.6560674 
0.09796679 
6
30
-0.9528975 -0.1130747 0.6633503 0.5369735 0.3356456 0.1890591 -0.3193156 -0.3529493 0.4711766 0.3198299 0.5775242 -0.8862128 -0.3967391 -0.3235265 0.9184487 -0.4044517 -0.8689945 0.3905544 -0.1714438 -0.2738775 0.03382027 -0.01861346 -0.4479374 0.352993 0.4016118 -0.5413415 0.6212413 0.879559 -0.4592885 0.04320443 
-0.5821927 -0.6660242 0.9845688 0.7799935 0.9365079 -0.1305262 -0.3262469 0.02429521 -0.2876769 -0.5217569 -0.6966634 0.5965273 -0.2392563 -0.06235087 -0.7347269 -0.2133435 0.257329 -0.1679858 -0.5634348 -0.1767079 -0.03000152 -0.02035439 0.7761242 0.3343711 0.8413985 -0.2524394 0.6139381 0.452584 -0.8925974 -0.2864169 
0.08368742 0.8794692 0.7196639 0.6731343 -0.5734935 -0.8915524 0.6914046 0.9357338 -0.8607259 0.2493824 -0.7561817 0.3825137 -0.9192235 0.01139319 0.744276 -0.7246485 0.007540584 0.3054325 -0.4003819 0.1560832 0.279 0.5775762 0.5020704 -0.9646814 -0.772177 0.3675976 -0.1499306 0.4437322 0.6319916 0.5182068 
0.8989682 -0.3311127 0.3459093 -0.6430333 -0.7738802 0.4539249 0.1449491 -0.1524907 -0.7744119 -0.6405203 -0.3127853 -0.1604491 0.2203912 0.6104407 0.7825582 0.1992701 -0.2522067 0.8378396 0.3473615 -0.04493868 -0.7505202 -0.3694087 0.0736748 -0.5121679 0.1207651 0.04403555 -0.464316 0.1641566 0.06040084 -0.8296156 
-0.4525021 -0.5150042 -0.5902925 -0.3237308 -0.8173678 -0.7934942 -0.04651845 0.4134535 -0.9347513 -0.5551932 0.0471586 -0.5482843 0.3270094 -0.6996136 -0.0627507 -0.9364288 0.6027405 -0.3878731 0.328696 0.2647142 -0.07796156 0.7603834 0.1703464 -0.6664238 0.5547588 0.3436598 -0.884501 -0.7910392 0.4335952 -0.2107757 
0.2655677 -0.336233 0.2974512 0.5037096 0.7256 0.2885723 -0.610965 -0.2242812 -0.1690298 -0.677886 0.6454887 -0.1711525 -0.6788607 0.2161638 0.4452531 0.3695621 -0.4420139 -0.4360663 0.7493153 0.4697087 -0.2423407 -0.8653913 0.3522958 -0.06209815 -0.4878012 0.5750804 -0.7119634 -0.5073299 -0.4070238 0.1620432 
30
1
-0.2605699 
-0.9416873 
-0.2582008 
-0.8775165 
-0.7946811 
0.9990432 
0.03799641 
0.9408791 
0.3258981 
-0.2652396 
0.9540074 
-0.4685079 
0.2448906 
-0.168214 
0.8059618 
0.6174598 
-0.6381764 
0.6595469 
0.3263888 
0.8048997 
0.5786417 
-0.5616913 
-0.5657935 
0.8987336 
0.2584343 
0.1015097 
-0.7585993 
0.4687423 
-0.6560674 
0.09796679 
6
30
0.4492755 0.9833069 -0.1215659 -0.7902153 0.1491963 -0.4048592 0.5205789 -0.0276159 -0.6425495 -0.5905852 0.6462591 0.2788367 0.4128191 -0.09217322 0.3315105 -0.03514493 -0.9419622 -0.3438283 -0.9359329 0.101787 0.09573758 -0.4581455 0.9935117 0.4086723 0.3647508 0.1854585 -0.1309053 -0.2863697 0.5536919 -0.2044793 
0.4815728 -0.5338383 -0.4641637 -0.536783 0.2980027 0.8240762 0.07351673 -0.6494238 0.1080323 0.8452196 0.8081269 -0.725553 -0.9613521 -0.5023 0.1647903 -0.1043299 -0.7680292 0.9038568 -0.6221452 -0.1245784 -0.02421272 0.8705225 -0.6774247 -0.4376658 0.005669713 -0.5642385 0.2097622 0.6959891 0.8954372 -0.7332401 
-0.8718684 0.6674652 -0.2602834 0.210971 0.00422442 0.1603111 0.5265248 0.5249071 -0.2491428 0.4272065 0.9489527 0.1178914 -0.3574384 -0.8452878 -0.9309483 0.7598336 -0.7306175 0.453464 -0.2344164 -0.5944841 -0.8119235 -0.3117741 0.6832609 0.02100003 0.3300335 -0.4245437 -0.3499306 -0.2603325 0.8566856 -0.8401709 
0.3237774 0.4651131 -0.53878 0.4848957 -0.8927121 0.03432381 0.6736028 0.3101773 -0.4045411 0.8533752 -0.3830353 0.4803569 0.7758396 -0.1225404 0.8873487 0.8989787 -0.2078608 0.3451495 0.7687016 0.6193099 -0.1262249 -0.5554876 0.3160441 0.3482253 0.5886488 0.880964 0.4586003 -0.9903176 0.1322392 -0.8163104 
-0.4181229 0.02125537 -0.4200236 -0.72877 -0.4147042 0.2175037 -0.1653408 0.07373178 0.7833643 0.3748908 -0.5850105 0.3864617 0.8415418 -0.3325588 -0.1440033 -0.1007174 -0.57126 -0.9137063 0.562829 -0.6547554 -0.1697077 -0.9898524 -0.6886227 -0.7127306 0.2167703 0.8640811 0.1025881 0.9708605 0.2857754 -0.8077703 
0.2095178 -0.4195951 0.4190387 0.7593558 -0.04621589 -0.134555 0.6142418 0.5134368 -0.5117953 0.3427362 -0.2772833 0.8656976 -0.6444306 -0.9519598 -0.2960154 0.2440735 0.9295158 0.6353197 0.1670772 -0.9654727 0.6278152 0.7872257 -0.2073108 -0.3635756 -0.2904609 0.2618968 -0.02690136 -0.2825657 -0.6041689 0.5328333 
30
1
-0.3398944 
0.5735233 
-0.699995 
-0.5528555 
0.5502427 
0.1803688 
0.2883866 
0.7686567 
-0.1687752 
-0.6807284 
-0.7956088 
0.1254491 
0.6933534 
-0.2302855 
-0.1532828 
0.9175992 
0.06746686 
-0.6526728 
0.8309734 
0.8306665 
0.3302564 
-0.7469406 
0.6145368 
-0.5344524 
0.7967448 
0.7698762 
0.9415138 
0.5874772 
0.8286769 
-0.09028995 
6
30
0.4492755 0.9833069 -0.1215659 -0.7902153 0.1491963 -0.4048592 0.5205789 -0.0276159 -0.6425495 -0.5905852 0.6462591 0.2788367 0.4128191 -0.09217322 0.3315105 -0.03514493 -0.9419622 -0.3438283 -0.9359329 0.101787 0.09573758 -0.4581455 0.9935117 0.4086723 0.3647508 0.1854585 -0.1309053 -0.2863697 0.5536919 -0.2044793 
0.4815728 -0.5338383 -0.4641637 -0.536783 0.479644 0.8240762 0.07351673 -0.6494238 0.1080323 -0.2634932 0.8081269 -0.725553 -0.9613521 -0.5023 0.1647903 -0.1043299 0.4895391 0.9038568 -0.6221452 -0.241187 -0.02421272 0.8705225 -0.6774247 -0.4376658 0.005669713 -0.5642385 0.2097622 0.6959891 0.8954372 -0.7332401 
-0.8718684 0.6674652 -0.2602834 0.210971 0.00422442 0.1603111 0.5265248 0.5249071 -0.2491428 0.4272065 0.9489527 0.1178914 -0.3574384 -0.8452878 -0.9309483 0.7598336 0.9232507 0.453464 -0.2344164 -0.5944841 -0.8119235 -0.3117741 0.9021938 0.02100003 0.3300335 -0.4245437 -0.3499306 -0.2603325 0.8566856 -0.8401709 
0.3237774 0.4651131 -0.53878 0.4848957 -0.8927121 0.03432381 0.6736028 0.3101773 -0.4045411 0.8533752 -0.3830353 0.9485817 0.7758396 -0.1225404 0.8873487 0.8989787 -0.2078608 0.3451495 0.7687016 0.6193099 -0.1262249 -0.5554876 0.3160441 0.3482253 0.5886488 0.880964 -0.3628496 -0.9903176 0.1322392 -0.8163104 
-0.4181229 0.02125537 -0.4200236 -0.72877 -0.4147042 0.2175037 0.5526989 0.07373178 0.7833643 0.3748908 -0.5850105 0.3864617 0.8415418 -0.3325588 -0.1440033 -0.1007174 -0.5983355 -0.9137063 0.562829 -0.6547554 -0.9330707 -0.9898524 -0.6886227 -0.7127306 0.2167703 0.8640811 0.1025881 0.9708605 0.2857754 -0.8077703 
0.2095178 -0.4195951 0.4190387 0.7593558 -0.04621589 -0.134555 0.6142418 -0.04437935 -0.5117953 0.3427362 -0.2772833 0.8656976 -0.6444306 -0.9519598 -0.2960154 0.2440735 0.9295158 0.6353197 0.1670772 -0.9654727 0.6278152 0.7872257 -0.2073108 -0.3635756 -0.2904609 0.2618968 -0.02690136 -0.2825657 -0.9009347 0.5328333 
30
1
-0.3398944 
0.5735233 
-0.699995 
-0.4250189 
0.5502427 
0.1803688 
0.2883866 
0.7686567 
-0.1687752 
-0.6807284 
-0.7956088 
0.1254491 
0.6933534 
-0.2302855 
-0.1532828 
0.9175992 
0.06746686 
-0.6526728 
0.8309734 
0.8306665 
0.3302564 
-0.7469406 
0.6145368 
-0.5344524 
0.7967448 
0.7698762 
0.9415138 
0.5874772 
0.8286769 
-0.09028995 
6
30
0.4492755 0.9833069 -0.1215659 -0.7902153 0.1491963 -0.4048592 0.5205789 -0.0276159 -0.6425495 -0.5905852 0.6462591 0.2788367 0.4128191 -0.09217322 0.3315105 -0.03514493 -0.9419622 -0.3438283 -0.9359329 0.101787 0.09573758 -0.4581455 0.9935117 0.4086723 0.3647508 0.1854585 -0.1309053 -0.2863697 0.5536919 -0.2044793 
0.4815728 -0.5338383 -0.4641637 -0.536783 0.2980027 0.8240762 0.07351673 -0.6494238 0.1080323 0.8452196 0.8081269 -0.725553 -0.9613521 -0.5023 0.1647903 -0.1043299 -0.7680292 0.9038568 -0.6221452 -0.1245784 -0.02421272 0.8705225 -0.6774247 -0.4376658 0.005669713 -0.5642385 0.2097622 0.6959891 0.8954372 -0.7332401 
-0.8718684 0.6674652 -0.2602834 0.210971 0.00422442 0.1603111 0.5265248 0.5249071 -0.2491428 0.4272065 0.9489527 0.1178914 -0.3574384 -0.8452878 -0.9309483 0.7598336 -0.7306175 0.453464 -0.2344164 -0.5944841 -0.8119235 -0.3117741 0.6832609 0.02100003 0.3300335 -0.4245437 -0.3499306 -0.2603325 0.8566856 -0.8401709 
0.3237774 0.4651131 -0.53878 0.4848957 -0.8927121 0.03432381 0.6736028 0.3101773 -0.4045411 0.8533752 -0.3830353 0.4803569 0.7758396 -0.1225404 0.8873487 0.8989787 -0.2078608 0.3451495 0.7687016 0.6193099 -0.1262249 -0.5554876 0.3160441 0.3482253 0.5886488 0.880964 0.4586003 -0.9903176 0.1322392 -0.8163104 
-0.4181229 0.02125537 -0.4200236 -0.72877 -0.4147042 0.2175037 -0.1653408 0.07373178 0.7833643 0.3748908 -0.5850105 0.3864617 0.8415418 -0.3325588 -0.1440033 -0.1007174 -0.57126 -0.9137063 0.562829 -0.6547554 -0.1697077 -0.9898524 -0.6886227 -0.7127306 0.2167703 0.8640811 0.1025881 0.9708605 0.2857754 -0.8077703 
0.2095178 -0.4195951 0.4190387 0.7593558 -0.04621589 -0.134555 0.6142418 0.5134368 -0.5117953 0.3427362 -0.2772833 0.8656976 -0.6444306 -0.9519598 -0.2960154 0.2440735 0.9295158 0.6353197 0.1670772 -0.9654727 0.6278152 0.7872257 -0.2073108 -0.3635756 -0.2904609 0.2618968 -0.02690136 -0.2825657 -0.6041689 0.5328333 
30
1
-0.3398944 
0.5735233 
-0.699995 
-0.5528555 
0.5502427 
0.1803688 
0.2883866 
0.7686567 
-0.1687752 
-0.6807284 
-0.7956088 
0.1254491 
0.6933534 
-0.2302855 
-0.1532828 
0.9175992 
0.06746686 
-0.6526728 
0.8309734 
0.8306665 
0.3302564 
-0.7469406 
0.6145368 
-0.5344524 
0.7967448 
0.7698762 
0.9415138 
0.5874772 
0.8286769 
-0.09028995 
6
30
0.6053059 0.06541121 -0.5918298 0.6233358 0.4218468 -0.7037449 0.175378 -0.4100004 0.8478587 -0.7682524 -0.05692303 0.5742743 -0.8689728 -0.4822448 0.5309281 -0.09715116 0.905525 0.6848838 0.03385222 -0.5771587 0.5592375 -0.159113 0.7163887 0.2826709 0.3772859 0.9434552 -0.64131 -0.6371055 0.5215001 -0.257892 
-0.4702388 -0.4489459 -0.1453813 0.337162 0.2907452 0.5253265 -0.4992005 -0.992425 0.4148683 -0.02339852 0.7435532 0.1507138 0.0870446 -0.6997283 -0.2090102 0.3440945 0.4355089 0.8184559 0.1664718 0.5464227 -0.4055094 0.09587967 -0.3569037 -0.9881628 0.8914976 0.6821585 -0.09832203 -0.3323463 -0.0161947 -0.006318212 
0.8959312 0.9403601 -0.663063 0.2289578 0.9575467 -0.9816191 0.8930228 0.110598 0.2871494 -0.9062057 0.3319099 -0.5929046 0.5800595 0.03639233 0.1681756 0.04613364 0.851243 -0.4249614 0.204733 -0.6765523 0.4201495 0.4384093 -0.4708847 0.37591 0.9296498 0.1705836 -0.08875215 -0.6615782 -0.08558691 -0.6275957 
-0.2625335 0.3352339 -0.6075711 0.4432745 0.8548896 0.6277881 0.115697 -0.3441964 0.8123794 -0.722991 0.4980805 -0.9870706 0.05790246 -0.8796227 -0.8979166 -0.9464123 -0.8296103 -0.5905032 -0.7878098 0.6140935 0.4461105 -0.4969426 -0.4813942 0.3219163 0.7777977 0.9691586 0.1062864 -0.8208222 0.1835493 -0.7548885 
0.5850751 -0.216895 0.2562353 -0.3675607 0.4151878 0.381823 0.9395933 0.5259852 0.4472029 -0.2882742 0.8047967 0.9854333 0.740618 -0.1101669 -0.6205494 0.008897901 -0.8611543 0.5899351 0.4623272 -0.5061011 0.2538752 0.2944705 0.9849861 0.106824 0.025967 0.4743769 -0.558718 -0.9581792 0.8444078 -0.853189 
0.2464613 0.5998416 0.830869 -0.8929451 -0.5449729 -0.9492509 0.09630001 0.6810942 -0.852839 -0.001549125 -0.1735476 0.8398843 -0.5715327 0.7799222 0.4351263 0.7972555 0.2266074 -0.5446992 -0.6538715 -0.9502964 -0.1624023 -0.3968793 -0.4686836 -0.8538015 -0.5568092 -0.9314103 0.9286141 0.4452288 -0.5697999 -0.159778 
30
1
0.2099794 
0.1728388 
0.07964838 
-0.8115706 
0.6970603 
-0.3440195 
0.7885852 
0.7219098 
0.9872859 
-0.553174 
0.6675582 
-0.6371348 
0.9941342 
-0.928669 
-0.8917768 
-0.8975682 
-0.8308151 
0.2513942 
0.947006 
-0.9452546 
0.6850214 
-0.430936 
0.1853763 
0.8711307 
0.7191033 
0.3711118 
0.5300348 
0.9219799 
0.9149885 
0.5289156 
6
30
0.2163888 0.1309534 0.119856 -0.4974095 -0.05493724 -0.1698157 -0.3979892 -0.09798515 0.3576295 0.9070587 -0.2998964 -0.07873142 0.898313 -0.4195591 -0.2970096 -0.5699427 -0.4557353 0.6414664 -0.2268418 0.6208222 0.8239245 0.5540617 7.510185E-06 0.7824223 0.5993087 0.8709335 0.9665463 0.1413194 0.827529 -0.3956336 
-0.9279051 0.8911724 -0.3121947 0.2114831 0.8540936 0.6290097 0.522619 -0.3202683 0.4186072 0.4595418 0.1694974 -0.5258839 0.3615985 -0.8813355 0.1282395 -0.1813129 -0.7256777 0.6893809 0.6204731 -0.1455523 -0.4696277 0.7482665 0.1241018 -0.6235821 -0.8415375 0.7420001 -0.7678642 0.2604224 -0.3570453 0.1894799 
0.3384032 -0.7171211 -0.01447737 0.1555742 -0.7724307 -0.2841522 -0.1992885 0.1109217 -0.6264193 -0.5848539 -0.7396336 0.03173339 -0.6672108 0.1929108 0.0224098 -0.4174951 0.8396528 -0.01731241 0.6282701 -0.9104183 0.3711729 0.5739229 0.3417117 -0.8804471 0.2878849 -0.509341 0.007321715 0.9045272 0.5001807 0.7109337 
-0.8154948 -0.2284566 0.9162621 0.1591667 -0.1171917 -0.8655736 -0.1528352 0.5244384 0.6111112 0.4595902 -0.5815341 0.9546108 -0.2844847 0.3361158 -0.6346531 -0.8688636 0.8411198 0.241094 0.8881652 -0.4553822 0.4224024 0.6503079 -0.5105894 0.1181492 -0.565167 -0.6301892 0.1473655 0.5050266 0.2493232 -0.4787933 
0.6008439 -0.1884779 0.8440211 0.4958443 -0.7599983 0.69502 0.6873236 -0.3856219 -0.8996489 0.8606033 -0.54458 -0.1470433 -0.6835964 0.7576807 -0.9872355 -0.3913888 -0.06888258 0.2559321 0.9100225 0.7980866 0.4205749 0.5128021 0.6029987 0.5661924 0.5445361 0.4262366 0.7887697 -0.6922679 -0.7924452 0.5310128 
-0.2911431 -0.5758166 -0.3732716 -0.1583217 0.4777612 -0.8575003 -0.103922 0.01140773 0.1941682 -0.153248 0.9045374 -0.4726726 -0.656008 0.6885355 -0.8622167 0.4912557 0.1323856 0.469717 -0.8233979 -0.2316192 0.6892576 -0.822834 0.2519893 -0.6164742 -0.5015697 0.8468804 0.5919762 -0.2385575 -0.4249173 0.147909 
30
1
0.5545592 
0.8666735 
0.8881452 
-0.5808699 
-0.5560687 
-0.7718146 
-0.4705027 
0.2907505 
-0.2136678 
-0.09948337 
0.08161438 
-0.5013793 
0.2936814 
0.6297388 
0.3154077 
-0.8099649 
0.9855752 
-0.964083 
0.6988029 
0.1765319 
0.6395915 
0.4204125 
-0.601079 
-0.09897578 
0.2980072 
-0.761477 
0.6060715 
-0.6542625 
0.8547828 
0.9277265 
