6
30
0.6053059 0.06541121 -0.5918298 0.6233358 0.4218468 -0.7037449 0.3855645 -0.4100004 0.8478587 -0.7682524 -0.05692303 0.5742743 -0.8689728 -0.4822448 0.5309281 -0.09715116 0.905525 0.6848838 0.03385222 -0.5771587 0.5592375 -0.159113 0.7163887 0.2826709 0.3772859 0.9434552 -0.64131 -0.6371055 0.5215001 -0.257892 
-0.4702388 -0.4489459 -0.1453813 0.337162 0.2907452 0.5253265 -0.4992005 -0.992425 0.4148683 -0.02339852 0.7435532 0.1507138 0.0870446 -0.6997283 -0.2090102 0.3440945 0.3301546 0.8184559 0.1664718 0.5464227 -0.4055094 0.09587967 -0.3569037 -0.9881628 0.8914976 0.6821585 -0.09832203 -0.3323463 -0.0161947 -0.006318212 
0.8959312 0.9403601 -0.663063 0.2289578 0.9575467 -0.9816191 0.8930228 0.110598 0.2871494 -0.9256477 0.3319099 -0.5929046 0.5800595 0.03639233 0.1681756 0.04613364 0.851243 -0.4249614 0.204733 -0.6765523 0.4201495 0.4384093 -0.4708847 0.37591 0.9296498 0.6811116 -0.08875215 -0.6615782 -0.08558691 -0.6275957 
0.3015432 0.3352339 -0.6075711 -0.639576 0.8548896 0.6277881 0.581857 -0.3441964 0.8123794 -0.1626312 0.4980805 -0.3499614 0.05790246 -0.8796227 -0.8979166 -0.9464123 -0.8296103 -0.902122 -0.7878098 0.1253759 0.4461105 -0.3963779 -0.4813942 0.004354835 0.7777977 0.9806795 0.7834623 -0.8208222 -0.4696597 -0.7548885 
0.5850751 -0.2210037 0.2562353 -0.3675607 0.4151878 0.381823 0.9395933 0.5259852 0.4472029 -0.2882742 0.8047967 0.9854333 0.740618 0.1429452 0.4424658 -0.7513747 -0.8611543 0.5899351 0.4623272 -0.5061011 0.2538752 0.2944705 0.9849861 0.106824 -0.08802903 0.4743769 -0.558718 -0.9581792 0.08514631 -0.853189 
0.3126917 0.5998416 0.830869 0.7198098 -0.5449729 -0.2762831 0.09630001 0.6810942 0.2172776 -0.001549125 0.6123941 0.8398843 -0.5715327 0.7799222 0.4351263 0.4829101 0.2266074 0.973593 -0.4344853 0.2887604 -0.1624023 0.07115686 -0.850163 -0.8538015 -0.5568092 -0.9314103 0.9286141 -0.8161485 -0.7346089 -0.159778 
30
1
0.2099794 
0.1728388 
0.07964838 
-0.8115706 
0.6970603 
-0.3440195 
0.2947983 
0.7219098 
0.9872859 
-0.553174 
0.6675582 
-0.6371348 
0.9941342 
-0.928669 
-0.8917768 
-0.8975682 
-0.8308151 
-0.8717773 
0.947006 
-0.9452546 
0.6850214 
-0.430936 
0.1853763 
0.8711307 
0.7191033 
0.3711118 
0.5300348 
0.9219799 
0.9149885 
0.5289156 
6
30
0.6053059 0.06541121 -0.5918298 0.6233358 0.4218468 -0.7037449 0.3855645 -0.4100004 0.8478587 -0.7682524 -0.05692303 0.5742743 -0.8689728 -0.4822448 0.5309281 -0.09715116 0.905525 0.6848838 0.03385222 -0.5771587 0.5592375 -0.159113 0.7163887 0.2826709 0.3772859 0.9434552 -0.64131 -0.6371055 0.5215001 -0.257892 
-0.4702388 -0.4489459 -0.1453813 0.337162 0.2907452 0.5253265 -0.4992005 -0.992425 0.4148683 -0.02339852 0.7435532 0.1507138 0.0870446 -0.6997283 -0.2090102 0.3440945 0.3301546 0.8184559 0.1664718 0.5464227 -0.4055094 0.09587967 -0.3569037 -0.9881628 0.8914976 0.6821585 -0.09832203 -0.3323463 -0.0161947 -0.006318212 
0.8959312 0.9403601 -0.663063 0.2289578 0.9575467 -0.9816191 0.8930228 0.110598 0.2871494 -0.9256477 0.3319099 -0.5929046 0.5800595 0.03639233 0.1681756 0.04613364 0.851243 -0.4249614 0.204733 -0.6765523 0.4201495 0.4384093 -0.4708847 0.37591 0.9296498 0.6811116 -0.08875215 -0.6615782 -0.08558691 -0.6275957 
0.3015432 0.3352339 -0.6075711 -0.639576 0.8548896 0.6277881 0.581857 -0.3441964 0.8123794 -0.1626312 0.4980805 -0.3499614 0.05790246 -0.8796227 -0.8979166 -0.9464123 -0.8296103 -0.902122 -0.7878098 0.1253759 0.4461105 -0.3963779 -0.4813942 0.004354835 0.7777977 0.9806795 0.7834623 -0.8208222 -0.4696597 -0.7548885 
0.5850751 -0.2210037 0.2562353 -0.3675607 0.4151878 0.381823 0.9395933 0.5259852 0.4472029 -0.2882742 0.8047967 0.9854333 0.740618 0.1429452 0.4424658 -0.7513747 -0.8611543 0.5899351 0.4623272 -0.5061011 0.2538752 0.2944705 0.9849861 0.106824 -0.08802903 0.4743769 -0.558718 -0.9581792 0.08514631 -0.853189 
0.3126917 0.5998416 0.830869 0.7198098 -0.5449729 -0.2762831 0.09630001 0.6810942 0.2172776 -0.001549125 0.6123941 0.8398843 -0.5715327 0.7799222 0.4351263 0.4829101 0.2266074 0.973593 -0.4344853 0.2887604 -0.1624023 0.07115686 -0.850163 -0.8538015 -0.5568092 -0.9314103 0.9286141 -0.8161485 -0.7346089 -0.159778 
30
1
0.2099794 
0.1728388 
0.07964838 
-0.8115706 
0.6970603 
-0.3440195 
0.2947983 
0.7219098 
0.9872859 
-0.553174 
0.6675582 
-0.6371348 
0.9941342 
-0.928669 
-0.8917768 
-0.8975682 
-0.8308151 
-0.8717773 
0.947006 
-0.9452546 
0.6850214 
-0.430936 
0.1853763 
0.8711307 
0.7191033 
0.3711118 
0.5300348 
0.9219799 
0.9149885 
0.5289156 
6
30
0.6053059 0.06541121 -0.5918298 0.6233358 0.4218468 -0.7037449 0.3855645 -0.4100004 0.8478587 -0.7682524 -0.05692303 0.5742743 -0.8689728 -0.4822448 0.5309281 -0.09715116 0.905525 0.6848838 0.03385222 -0.5771587 0.5592375 -0.159113 0.7163887 0.2826709 0.3772859 0.9434552 -0.64131 -0.6371055 0.5215001 -0.257892 
-0.4702388 -0.4489459 -0.1453813 0.337162 0.2907452 0.5253265 -0.4992005 -0.992425 0.4148683 -0.02339852 0.7435532 0.1507138 0.0870446 -0.6997283 -0.2090102 0.3440945 0.3301546 0.8184559 0.1664718 0.5464227 -0.4055094 0.09587967 -0.3569037 -0.9881628 0.8914976 0.6821585 -0.09832203 -0.3323463 -0.0161947 -0.006318212 
0.8959312 0.9403601 -0.663063 0.2289578 0.9575467 -0.9816191 0.8930228 0.110598 0.2871494 -0.9256477 0.3319099 -0.5929046 0.5800595 0.03639233 0.1681756 0.04613364 0.851243 -0.4249614 0.204733 -0.6765523 0.4201495 0.4384093 -0.4708847 0.37591 0.9296498 0.6811116 -0.08875215 -0.6615782 -0.08558691 -0.6275957 
0.3015432 0.3352339 -0.6075711 -0.639576 0.8548896 0.6277881 0.581857 -0.3441964 0.8123794 -0.1626312 0.4980805 -0.3499614 0.05790246 -0.8796227 -0.8979166 -0.9464123 -0.8296103 -0.902122 -0.7878098 0.1253759 0.4461105 -0.3963779 -0.4813942 0.004354835 0.7777977 0.9806795 0.7834623 -0.8208222 -0.4696597 -0.7548885 
0.5850751 -0.2210037 0.2562353 -0.3675607 0.4151878 0.381823 0.9395933 0.5259852 0.4472029 -0.2882742 0.8047967 0.9854333 0.740618 0.1429452 0.4424658 -0.7513747 -0.8611543 0.5899351 0.4623272 -0.5061011 0.2538752 0.2944705 0.9849861 0.106824 -0.08802903 0.4743769 -0.558718 -0.9581792 0.08514631 -0.853189 
0.3126917 0.5998416 0.830869 0.7198098 -0.5449729 -0.2762831 0.09630001 0.6810942 0.2172776 -0.001549125 0.6123941 0.8398843 -0.5715327 0.7799222 0.4351263 0.4829101 0.2266074 0.973593 -0.4344853 0.2887604 -0.1624023 0.07115686 -0.850163 -0.8538015 -0.5568092 -0.9314103 0.9286141 -0.8161485 -0.7346089 -0.159778 
30
1
0.2099794 
0.1728388 
0.07964838 
-0.8115706 
0.6970603 
-0.3440195 
0.2947983 
0.7219098 
0.9872859 
-0.553174 
0.6675582 
-0.6371348 
0.9941342 
-0.928669 
-0.8917768 
-0.8975682 
-0.8308151 
-0.8717773 
0.947006 
-0.9452546 
0.6850214 
-0.430936 
0.1853763 
0.8711307 
0.7191033 
0.3711118 
0.5300348 
0.9219799 
0.9149885 
0.5289156 
6
30
0.6053059 0.06541121 -0.5918298 0.6233358 0.4218468 -0.7037449 0.3855645 -0.4100004 0.8478587 -0.7682524 -0.05692303 0.5742743 -0.8689728 -0.4822448 0.5309281 -0.09715116 0.905525 0.6848838 0.03385222 -0.5771587 0.5592375 -0.159113 0.7163887 0.2826709 0.3772859 0.9434552 -0.64131 -0.6371055 0.5215001 -0.257892 
-0.4702388 -0.4489459 -0.1453813 0.337162 0.2907452 0.5253265 -0.4992005 -0.992425 0.4148683 -0.02339852 0.7435532 0.1507138 0.0870446 -0.6997283 -0.2090102 0.3440945 0.3301546 0.8184559 0.1664718 0.5464227 -0.4055094 0.09587967 -0.3569037 -0.9881628 0.8914976 0.6821585 -0.09832203 -0.3323463 -0.0161947 -0.006318212 
0.8959312 0.9403601 -0.663063 0.2289578 0.9575467 -0.9816191 0.8930228 0.110598 0.2871494 -0.9256477 0.3319099 -0.5929046 0.5800595 0.03639233 0.1681756 0.04613364 0.851243 -0.4249614 0.204733 -0.6765523 0.4201495 0.4384093 -0.4708847 0.37591 0.9296498 0.6811116 -0.08875215 -0.6615782 -0.08558691 -0.6275957 
0.3015432 0.3352339 -0.6075711 -0.639576 0.8548896 0.6277881 0.581857 -0.3441964 0.8123794 -0.1626312 0.4980805 -0.3499614 0.05790246 -0.8796227 -0.8979166 -0.9464123 -0.8296103 -0.902122 -0.7878098 0.1253759 0.4461105 -0.3963779 -0.4813942 0.004354835 0.7777977 0.9806795 0.7834623 -0.8208222 -0.4696597 -0.7548885 
0.5850751 -0.2210037 0.2562353 -0.3675607 0.4151878 0.381823 0.9395933 0.5259852 0.4472029 -0.2882742 0.8047967 0.9854333 0.740618 0.1429452 0.4424658 -0.7513747 -0.8611543 0.5899351 0.4623272 -0.5061011 0.2538752 0.2944705 0.9849861 0.106824 -0.08802903 0.4743769 -0.558718 -0.9581792 0.08514631 -0.853189 
0.3126917 0.5998416 0.830869 0.7198098 -0.5449729 -0.2762831 0.09630001 0.6810942 0.2172776 -0.001549125 0.6123941 0.8398843 -0.5715327 0.7799222 0.4351263 0.4829101 0.2266074 0.973593 -0.4344853 0.2887604 -0.1624023 0.07115686 -0.850163 -0.8538015 -0.5568092 -0.9314103 0.9286141 -0.8161485 -0.7346089 -0.159778 
30
1
0.2099794 
0.1728388 
0.07964838 
-0.8115706 
0.6970603 
-0.3440195 
0.2947983 
0.7219098 
0.9872859 
-0.553174 
0.6675582 
-0.6371348 
0.9941342 
-0.928669 
-0.8917768 
-0.8975682 
-0.8308151 
-0.8717773 
0.947006 
-0.9452546 
0.6850214 
-0.430936 
0.1853763 
0.8711307 
0.7191033 
0.3711118 
0.5300348 
0.9219799 
0.9149885 
0.5289156 
6
30
0.6053059 0.06541121 -0.5918298 0.6233358 0.4218468 -0.7037449 0.3855645 -0.4100004 0.8478587 -0.7682524 -0.05692303 0.5742743 -0.8689728 -0.4822448 0.5309281 -0.09715116 0.905525 0.6848838 0.03385222 -0.5771587 0.5592375 -0.159113 0.7163887 0.2826709 0.3772859 0.9434552 -0.64131 -0.6371055 0.5215001 -0.257892 
-0.4702388 -0.4489459 -0.1453813 0.337162 0.2907452 0.5253265 -0.4992005 -0.992425 0.4148683 -0.02339852 0.7435532 0.1507138 0.0870446 -0.6997283 -0.2090102 0.3440945 0.3301546 0.8184559 0.1664718 0.5464227 -0.4055094 0.09587967 -0.3569037 -0.9881628 0.8914976 0.6821585 -0.09832203 -0.3323463 -0.0161947 -0.006318212 
0.8959312 0.9403601 -0.663063 0.2289578 0.9575467 -0.9816191 0.8930228 0.110598 0.2871494 -0.9256477 0.3319099 -0.5929046 0.5800595 0.03639233 0.1681756 0.04613364 0.851243 -0.4249614 0.204733 -0.6765523 0.4201495 0.4384093 -0.4708847 0.37591 0.9296498 0.6811116 -0.08875215 -0.6615782 -0.08558691 -0.6275957 
0.3015432 0.3352339 -0.6075711 -0.639576 0.8548896 0.6277881 0.581857 -0.3441964 0.8123794 -0.1626312 0.4980805 -0.3499614 0.05790246 -0.8796227 -0.8979166 -0.9464123 -0.8296103 -0.902122 -0.7878098 0.1253759 0.4461105 -0.3963779 -0.4813942 0.004354835 0.7777977 0.9806795 0.7834623 -0.8208222 -0.4696597 -0.7548885 
0.5850751 -0.2210037 0.2562353 -0.3675607 0.4151878 0.381823 0.9395933 0.5259852 0.4472029 -0.2882742 0.8047967 0.9854333 0.740618 0.1429452 0.4424658 -0.7513747 -0.8611543 0.5899351 0.4623272 -0.5061011 0.2538752 0.2944705 0.9849861 0.106824 -0.08802903 0.4743769 -0.558718 -0.9581792 0.08514631 -0.853189 
0.3126917 0.5998416 0.830869 0.7198098 -0.5449729 -0.2762831 0.09630001 0.6810942 0.2172776 -0.001549125 0.6123941 0.8398843 -0.5715327 0.7799222 0.4351263 0.4829101 0.2266074 0.973593 -0.4344853 0.2887604 -0.1624023 0.07115686 -0.850163 -0.8538015 -0.5568092 -0.9314103 0.9286141 -0.8161485 -0.7346089 -0.159778 
30
1
0.2099794 
0.1728388 
0.07964838 
-0.8115706 
0.6970603 
-0.3440195 
0.2947983 
0.7219098 
0.9872859 
-0.553174 
0.6675582 
-0.6371348 
0.9941342 
-0.928669 
-0.8917768 
-0.8975682 
-0.8308151 
-0.8717773 
0.947006 
-0.9452546 
0.6850214 
-0.430936 
0.1853763 
0.8711307 
0.7191033 
0.3711118 
0.5300348 
0.9219799 
0.9149885 
0.5289156 
6
30
0.6053059 0.06541121 -0.5918298 0.6233358 0.4218468 -0.7037449 0.3855645 -0.4100004 0.8478587 -0.7682524 -0.05692303 0.5742743 -0.8689728 -0.4822448 0.5309281 -0.09715116 0.905525 0.6848838 0.03385222 -0.5771587 0.5592375 -0.159113 0.7163887 0.2826709 0.3772859 0.9434552 -0.64131 -0.6371055 0.5215001 -0.257892 
-0.4702388 -0.4489459 -0.1453813 0.337162 0.2907452 0.5253265 -0.4992005 -0.992425 0.4148683 -0.02339852 0.7435532 0.1507138 0.0870446 -0.6997283 -0.2090102 0.3440945 0.3301546 0.8184559 0.1664718 0.5464227 -0.4055094 0.09587967 -0.3569037 -0.9881628 0.8914976 0.6821585 -0.09832203 -0.3323463 -0.0161947 -0.006318212 
0.8959312 0.9403601 -0.663063 0.2289578 0.9575467 -0.9816191 0.8930228 0.110598 0.2871494 -0.9256477 0.3319099 -0.5929046 0.5800595 0.03639233 0.1681756 0.04613364 0.851243 -0.4249614 0.204733 -0.6765523 0.4201495 0.4384093 -0.4708847 0.37591 0.9296498 0.6811116 -0.08875215 -0.6615782 -0.08558691 -0.6275957 
0.3015432 0.3352339 -0.6075711 -0.639576 0.8548896 0.6277881 0.581857 -0.3441964 0.8123794 -0.1626312 0.4980805 -0.3499614 0.05790246 -0.8796227 -0.8979166 -0.9464123 -0.8296103 -0.902122 -0.7878098 0.1253759 0.4461105 -0.3963779 -0.4813942 0.004354835 0.7777977 0.9806795 0.7834623 -0.8208222 -0.4696597 -0.7548885 
0.5850751 -0.2210037 0.2562353 -0.3675607 0.4151878 0.381823 0.9395933 0.5259852 0.4472029 -0.2882742 0.8047967 0.9854333 0.740618 0.1429452 0.4424658 -0.7513747 -0.8611543 0.5899351 0.4623272 -0.5061011 0.2538752 0.2944705 0.9849861 0.106824 -0.08802903 0.4743769 -0.558718 -0.9581792 0.08514631 -0.853189 
0.3126917 0.5998416 0.830869 0.7198098 -0.5449729 -0.2762831 0.09630001 0.6810942 0.2172776 -0.001549125 0.6123941 0.8398843 -0.5715327 0.7799222 0.4351263 0.4829101 0.2266074 0.973593 -0.4344853 0.2887604 -0.1624023 0.07115686 -0.850163 -0.8538015 -0.5568092 -0.9314103 0.9286141 -0.8161485 -0.7346089 -0.159778 
30
1
0.2099794 
0.1728388 
0.07964838 
-0.8115706 
0.6970603 
-0.3440195 
0.2947983 
0.7219098 
0.9872859 
-0.553174 
0.6675582 
-0.6371348 
0.9941342 
-0.928669 
-0.8917768 
-0.8975682 
-0.8308151 
-0.8717773 
0.947006 
-0.9452546 
0.6850214 
-0.430936 
0.1853763 
0.8711307 
0.7191033 
0.3711118 
0.5300348 
0.9219799 
0.9149885 
0.5289156 
6
30
0.6053059 0.06541121 -0.5918298 0.6233358 0.4218468 -0.7037449 0.3855645 -0.4100004 0.8478587 -0.7682524 -0.05692303 0.5742743 -0.8689728 -0.4822448 0.5309281 -0.09715116 0.905525 0.6848838 0.03385222 -0.5771587 0.5592375 -0.159113 0.7163887 0.2826709 0.3772859 0.9434552 -0.64131 -0.6371055 0.5215001 -0.257892 
-0.4702388 -0.4489459 -0.1453813 0.337162 0.2907452 0.5253265 -0.4992005 -0.992425 0.4148683 -0.02339852 0.7435532 0.1507138 0.0870446 -0.6997283 -0.2090102 0.3440945 0.3301546 0.8184559 0.1664718 0.5464227 -0.4055094 0.09587967 -0.3569037 -0.9881628 0.8914976 0.6821585 -0.09832203 -0.3323463 -0.0161947 -0.006318212 
0.8959312 0.9403601 -0.663063 0.2289578 0.9575467 -0.9816191 0.8930228 0.110598 0.2871494 -0.9256477 0.3319099 -0.5929046 0.5800595 0.03639233 0.1681756 0.04613364 0.851243 -0.4249614 0.204733 -0.6765523 0.4201495 0.4384093 -0.4708847 0.37591 0.9296498 0.6811116 -0.08875215 -0.6615782 -0.08558691 -0.6275957 
0.3015432 0.3352339 -0.6075711 -0.639576 0.8548896 0.6277881 0.581857 -0.3441964 0.8123794 -0.1626312 0.4980805 -0.3499614 0.05790246 -0.8796227 -0.8979166 -0.9464123 -0.8296103 -0.902122 -0.7878098 0.1253759 0.4461105 -0.3963779 -0.4813942 0.004354835 0.7777977 0.9806795 0.7834623 -0.8208222 -0.4696597 -0.7548885 
0.5850751 -0.2210037 0.2562353 -0.3675607 0.4151878 0.381823 0.9395933 0.5259852 0.4472029 -0.2882742 0.8047967 0.9854333 0.740618 0.1429452 0.4424658 -0.7513747 -0.8611543 0.5899351 0.4623272 -0.5061011 0.2538752 0.2944705 0.9849861 0.106824 -0.08802903 0.4743769 -0.558718 -0.9581792 0.08514631 -0.853189 
0.3126917 0.5998416 0.830869 0.7198098 -0.5449729 -0.2762831 0.09630001 0.6810942 0.2172776 -0.001549125 0.6123941 0.8398843 -0.5715327 0.7799222 0.4351263 0.4829101 0.2266074 0.973593 -0.4344853 0.2887604 -0.1624023 0.07115686 -0.850163 -0.8538015 -0.5568092 -0.9314103 0.9286141 -0.8161485 -0.7346089 -0.159778 
30
1
0.2099794 
0.1728388 
0.07964838 
-0.8115706 
0.6970603 
-0.3440195 
0.2947983 
0.7219098 
0.9872859 
-0.553174 
0.6675582 
-0.6371348 
0.9941342 
-0.928669 
-0.8917768 
-0.8975682 
-0.8308151 
-0.8717773 
0.947006 
-0.9452546 
0.6850214 
-0.430936 
0.1853763 
0.8711307 
0.7191033 
0.3711118 
0.5300348 
0.9219799 
0.9149885 
0.5289156 
6
30
0.6053059 0.06541121 -0.5918298 0.6233358 0.4218468 -0.7037449 0.3855645 -0.4100004 0.8478587 -0.7682524 -0.05692303 0.5742743 -0.8689728 -0.4822448 0.5309281 -0.09715116 0.905525 0.6848838 0.03385222 -0.5771587 0.5592375 -0.159113 0.7163887 0.2826709 0.3772859 0.9434552 -0.64131 -0.6371055 0.5215001 -0.257892 
-0.4702388 -0.4489459 -0.1453813 0.337162 0.2907452 0.5253265 -0.4992005 -0.992425 0.4148683 -0.02339852 0.7435532 0.1507138 0.0870446 -0.6997283 -0.2090102 0.3440945 0.3301546 0.8184559 0.1664718 0.5464227 -0.4055094 0.09587967 -0.3569037 -0.9881628 0.8914976 0.6821585 -0.09832203 -0.3323463 -0.0161947 -0.006318212 
0.8959312 0.9403601 -0.663063 0.2289578 0.9575467 -0.9816191 0.8930228 0.110598 0.2871494 -0.9256477 0.3319099 -0.5929046 0.5800595 0.03639233 0.1681756 0.04613364 0.851243 -0.4249614 0.204733 -0.6765523 0.4201495 0.4384093 -0.4708847 0.37591 0.9296498 0.6811116 -0.08875215 -0.6615782 -0.08558691 -0.6275957 
0.3015432 0.3352339 -0.6075711 -0.639576 0.8548896 0.6277881 0.581857 -0.3441964 0.8123794 -0.1626312 0.4980805 -0.3499614 0.05790246 -0.8796227 -0.8979166 -0.9464123 -0.8296103 -0.902122 -0.7878098 0.1253759 0.4461105 -0.3963779 -0.4813942 0.004354835 0.7777977 0.9806795 0.7834623 -0.8208222 -0.4696597 -0.7548885 
0.5850751 -0.2210037 0.2562353 -0.3675607 0.4151878 0.381823 0.9395933 0.5259852 0.4472029 -0.2882742 0.8047967 0.9854333 0.740618 0.1429452 0.4424658 -0.7513747 -0.8611543 0.5899351 0.4623272 -0.5061011 0.2538752 0.2944705 0.9849861 0.106824 -0.08802903 0.4743769 -0.558718 -0.9581792 0.08514631 -0.853189 
0.3126917 0.5998416 0.830869 0.7198098 -0.5449729 -0.2762831 0.09630001 0.6810942 0.2172776 -0.001549125 0.6123941 0.8398843 -0.5715327 0.7799222 0.4351263 0.4829101 0.2266074 0.973593 -0.4344853 0.2887604 -0.1624023 0.07115686 -0.850163 -0.8538015 -0.5568092 -0.9314103 0.9286141 -0.8161485 -0.7346089 -0.159778 
30
1
0.2099794 
0.1728388 
0.07964838 
-0.8115706 
0.6970603 
-0.3440195 
0.2947983 
0.7219098 
0.9872859 
-0.553174 
0.6675582 
-0.6371348 
0.9941342 
-0.928669 
-0.8917768 
-0.8975682 
-0.8308151 
-0.8717773 
0.947006 
-0.9452546 
0.6850214 
-0.430936 
0.1853763 
0.8711307 
0.7191033 
0.3711118 
0.5300348 
0.9219799 
0.9149885 
0.5289156 
6
30
0.6053059 0.06541121 -0.5918298 0.6233358 0.4218468 -0.7037449 0.3855645 -0.4100004 0.8478587 -0.7682524 -0.05692303 0.5742743 -0.8689728 -0.4822448 0.5309281 -0.09715116 0.905525 0.6848838 0.03385222 -0.5771587 0.5592375 -0.159113 0.7163887 0.2826709 0.3772859 0.9434552 -0.64131 -0.6371055 0.5215001 -0.257892 
-0.4702388 -0.4489459 -0.1453813 0.337162 0.2907452 0.5253265 -0.4992005 -0.992425 0.4148683 -0.02339852 0.7435532 -0.3627385 0.0870446 -0.6997283 -0.2090102 0.3440945 0.3301546 0.8184559 0.1664718 0.3836512 -0.4055094 0.09587967 -0.3569037 -0.9881628 0.8914976 0.6821585 -0.09832203 -0.3323463 -0.2857808 -0.006318212 
0.8959312 0.9403601 -0.663063 0.2289578 0.9575467 -0.9816191 0.8656275 0.110598 0.2871494 -0.9256477 0.3319099 -0.5929046 0.5800595 -0.4233168 0.1681756 0.04613364 0.851243 -0.4249614 0.204733 -0.6765523 0.4201495 0.4384093 0.4934549 0.37591 0.9296498 0.6811116 -0.08875215 -0.6615782 0.9402916 -0.6275957 
0.3015432 0.3352339 -0.6075711 -0.639576 0.8548896 0.6277881 0.581857 -0.3441964 0.8123794 -0.1626312 0.4980805 -0.3499614 -0.7105801 -0.8796227 -0.8979166 -0.9464123 -0.8296103 -0.902122 -0.7878098 0.1253759 0.8418524 -0.3963779 -0.4813942 0.004354835 0.7777977 0.9806795 0.7834623 -0.8208222 -0.4696597 -0.7548885 
0.5850751 -0.2210037 0.2562353 -0.6675668 0.4151878 0.381823 0.2602105 0.5259852 0.4472029 -0.2882742 -0.4288267 0.9854333 0.740618 -0.3474919 0.4424658 -0.7513747 -0.8611543 0.5899351 0.4623272 -0.5061011 0.4669158 0.2944705 0.9849861 0.106824 -0.08802903 0.4743769 -0.558718 -0.9581792 0.08514631 -0.853189 
0.3126917 0.5998416 0.830869 0.7198098 -0.5449729 -0.2762831 0.09630001 0.6810942 0.2172776 -0.001549125 -0.5314555 0.3117306 -0.5715327 0.7799222 0.4351263 0.4829101 0.2266074 0.973593 -0.4344853 0.2887604 -0.1624023 0.07115686 -0.850163 -0.8538015 -0.5568092 -0.9314103 0.9286141 -0.8161485 -0.7346089 -0.159778 
30
1
-0.190477 
0.1728388 
0.07964838 
-0.8115706 
0.6970603 
-0.3440195 
0.2947983 
0.7219098 
0.9872859 
-0.553174 
0.6675582 
-0.6371348 
0.9941342 
-0.928669 
-0.8917768 
-0.8975682 
-0.8308151 
-0.8717773 
0.947006 
-0.9452546 
0.6850214 
-0.430936 
0.1853763 
0.8711307 
0.7191033 
0.3711118 
0.5300348 
0.9219799 
0.9149885 
0.5289156 
6
30
0.6053059 0.06541121 -0.5918298 0.6233358 0.4218468 0.7249987 0.3855645 -0.4100004 0.8478587 -0.7682524 -0.05692303 0.5742743 -0.8689728 -0.4822448 0.5309281 -0.09715116 -0.9653378 0.6848838 -0.6684358 -0.5771587 0.5592375 -0.159113 0.7163887 0.2826709 0.3772859 0.9434552 -0.64131 -0.6371055 0.5215001 -0.257892 
-0.4702388 0.2733388 -0.1453813 0.337162 0.2907452 0.5253265 -0.4992005 -0.992425 0.4148683 -0.02339852 0.6967566 -0.3627385 0.0870446 -0.6997283 -0.2090102 0.3440945 0.3301546 0.8184559 0.1664718 0.3836512 -0.4055094 0.09587967 -0.3569037 -0.9881628 0.08892977 0.6821585 -0.09832203 -0.3323463 -0.2857808 -0.5569451 
0.8959312 0.9403601 -0.663063 0.2289578 0.9575467 -0.9816191 0.8656275 0.110598 0.2871494 -0.9256477 0.8740149 -0.5929046 0.5800595 -0.4233168 0.1681756 0.04613364 0.851243 -0.4249614 0.204733 -0.6765523 0.4201495 0.4384093 0.4934549 0.37591 0.9296498 0.6811116 -0.08875215 -0.6615782 0.9402916 -0.6275957 
0.3015432 0.3352339 -0.6075711 -0.639576 0.8548896 0.6277881 0.581857 -0.3441964 0.8123794 -0.1626312 -0.08555543 -0.3499614 -0.7105801 -0.8796227 -0.8979166 -0.9464123 -0.8296103 -0.902122 -0.7878098 0.1253759 0.8418524 -0.3963779 -0.4813942 0.004354835 0.7777977 0.9806795 0.7834623 -0.8208222 -0.4696597 -0.7548885 
0.5850751 -0.2210037 0.2562353 -0.6675668 0.4151878 -0.7838593 -0.9701374 0.5259852 0.4472029 -0.2882742 -0.4288267 0.9854333 0.740618 -0.3474919 0.4424658 -0.7513747 -0.8611543 0.5899351 0.4623272 -0.5061011 0.4669158 0.2944705 0.9849861 0.106824 -0.7228048 0.4743769 -0.558718 -0.9581792 0.08514631 -0.853189 
0.3126917 0.5998416 0.830869 0.7198098 -0.5449729 -0.2762831 0.09630001 0.6810942 0.2172776 -0.001549125 -0.5314555 0.3117306 -0.5715327 0.7799222 0.4351263 0.4829101 0.6791337 0.973593 -0.4344853 0.2887604 -0.1624023 0.07115686 -0.850163 -0.8538015 -0.5568092 -0.9314103 0.9286141 -0.8161485 -0.7346089 -0.159778 
30
1
-0.190477 
0.1728388 
0.07964838 
-0.8115706 
0.6970603 
-0.3440195 
0.2947983 
0.7219098 
0.9872859 
-0.4019176 
0.6675582 
-0.6371348 
0.9941342 
-0.928669 
-0.8917768 
-0.8975682 
-0.8308151 
-0.8717773 
0.947006 
-0.9452546 
0.6850214 
-0.430936 
0.1853763 
0.8711307 
0.7191033 
0.3711118 
0.5300348 
0.9219799 
0.9149885 
0.5289156 
6
30
-0.2885886 0.06541121 -0.5918298 0.6233358 0.04392707 -0.7037449 0.2732765 0.8968999 0.8478587 -0.7682524 -0.05692303 0.5742743 -0.8689728 -0.4822448 -0.3423616 -0.09715116 0.905525 0.6848838 0.03385222 -0.5771587 -0.6892867 -0.3358589 0.7163887 0.2826709 0.3772859 0.9434552 -0.64131 -0.6371055 0.5215001 -0.4797701 
-0.4702388 -0.4489459 -0.1453813 0.337162 0.2907452 0.5253265 -0.4992005 -0.992425 0.4148683 -0.02339852 0.7435532 0.6646261 0.0870446 0.2469643 -0.2090102 0.3440945 0.3301546 0.8184559 0.1664718 0.5464227 -0.4055094 0.1137789 0.8666778 -0.9881628 0.8914976 0.6821585 -0.09832203 -0.3323463 0.7428892 -0.006318212 
0.8959312 0.6987684 -0.663063 0.2289578 0.9575467 -0.9816191 0.8930228 0.110598 0.2871494 -0.9256477 0.3319099 -0.009432197 0.5800595 0.03639233 0.1681756 0.04613364 0.851243 -0.4249614 0.9151533 -0.6765523 0.4201495 0.4384093 -0.4708847 0.005502105 0.9296498 0.6811116 -0.08875215 -0.6615782 -0.08558691 -0.6275957 
0.3015432 0.3352339 -0.6075711 -0.639576 0.8548896 0.8278866 0.581857 -0.3441964 0.8123794 -0.1626312 0.4980805 -0.3499614 0.05790246 -0.8796227 -0.8979166 -0.9464123 -0.8296103 -0.902122 -0.7878098 0.1253759 0.4461105 -0.3963779 -0.4813942 0.004354835 0.7777977 0.9806795 0.7834623 -0.8208222 -0.4696597 -0.7548885 
0.5850751 -0.2210037 0.2562353 -0.3675607 0.4151878 0.381823 0.9395933 0.5259852 0.4472029 -0.2882742 0.8047967 0.6108067 0.740618 0.1429452 -0.1566449 -0.7513747 -0.8611543 0.5899351 0.4623272 -0.5061011 0.2538752 0.2944705 0.9849861 0.106824 -0.6618633 0.4743769 -0.558718 -0.9581792 0.08514631 -0.853189 
0.3126917 0.5998416 0.4061651 0.7198098 -0.5449729 -0.2762831 0.09630001 0.9913688 0.2172776 -0.001549125 0.6123941 0.8398843 0.288367 0.7799222 0.4351263 0.4829101 0.2266074 0.2838707 -0.4344853 0.2887604 -0.1624023 0.07115686 -0.850163 0.09362781 -0.5568092 -0.9314103 0.9286141 -0.8161485 -0.7346089 -0.159778 
30
1
0.2099794 
0.1728388 
0.07964838 
-0.8115706 
-0.5170584 
-0.3440195 
0.2947983 
0.7219098 
0.9872859 
-0.553174 
0.6675582 
-0.6371348 
-0.5801375 
-0.928669 
-0.8917768 
-0.8975682 
-0.8308151 
-0.8717773 
0.947006 
-0.9452546 
0.6850214 
-0.430936 
0.1853763 
0.8711307 
0.7191033 
0.3711118 
0.5300348 
0.9219799 
0.9149885 
0.5289156 
6
30
0.5350585 0.06541121 -0.5918298 0.6233358 0.4218468 -0.7037449 0.2732904 -0.4100004 0.8478587 -0.7682524 -0.05692303 0.5742743 -0.8689728 -0.4822448 0.5309281 -0.566828 0.905525 0.6848838 0.03385222 -0.5771587 0.5592375 -0.159113 0.7163887 0.2826709 0.3772859 0.9434552 -0.64131 -0.6371055 0.5215001 -0.257892 
-0.4702388 -0.4489459 -0.1453813 0.337162 0.2907452 0.5253265 -0.4992005 -0.992425 0.4148683 -0.02339852 0.7435532 0.1507138 0.0870446 -0.6997283 -0.2090102 0.3440945 0.3301546 0.9539137 0.1664718 0.5464227 -0.4055094 -0.8476212 -0.3569037 -0.9881628 0.8914976 0.6821585 -0.09832203 -0.3323463 -0.0161947 -0.006318212 
0.8959312 0.9403601 -0.663063 0.2289578 0.9575467 -0.9816191 0.5290792 0.110598 0.2871494 -0.9256477 0.3319099 -0.5929046 0.5800595 0.03639233 0.1681756 0.04613364 0.851243 0.9090309 0.204733 -0.6765523 0.4201495 0.4384093 -0.4708847 0.4924235 0.9296498 0.6811116 -0.08875215 -0.6615782 -0.08558691 -0.6275957 
0.3015432 0.3352339 -0.6075711 -0.6496165 0.8548896 0.6277881 0.581857 -0.3441964 0.8123794 -0.1626312 0.4980805 -0.3499614 0.05790246 -0.8796227 -0.8979166 -0.9464123 -0.8296103 -0.902122 -0.7878098 0.1253759 0.1872512 -0.3963779 -0.4813942 0.004354835 0.7777977 0.9806795 0.7834623 -0.8208222 -0.4696597 -0.7548885 
0.5850751 -0.2210037 0.2562353 -0.3675607 0.4151878 0.381823 0.9395933 0.5259852 0.4472029 -0.2882742 0.8047967 0.9854333 0.740618 0.1429452 0.4424658 -0.7513747 -0.8611543 0.5899351 -0.7770374 -0.5061011 0.2538752 -0.8677516 0.9849861 0.106824 -0.08802903 0.4743769 0.962625 -0.9581792 0.7968338 -0.853189 
0.3126917 0.5998416 0.830869 0.7198098 -0.5449729 -0.9072073 0.09630001 0.6810942 0.2172776 -0.001549125 0.6123941 0.8398843 -0.5715327 0.7799222 -0.8537958 0.4829101 0.2266074 0.973593 -0.4344853 0.2887604 -0.1624023 0.07115686 -0.850163 -0.8538015 -0.5568092 -0.9314103 0.9286141 -0.8161485 -0.7346089 -0.159778 
30
1
0.2099794 
0.1728388 
0.07964838 
-0.8115706 
0.6970603 
-0.3440195 
0.2947983 
0.7219098 
0.9872859 
-0.553174 
0.6675582 
-0.6371348 
0.9941342 
-0.928669 
-0.8917768 
-0.8975682 
-0.8308151 
-0.8717773 
0.947006 
-0.9452546 
0.6850214 
-0.430936 
0.1853763 
0.8711307 
0.7191033 
0.3711118 
0.5300348 
0.9219799 
0.9149885 
0.5289156 
6
30
0.5350585 0.06541121 -0.5918298 0.6233358 0.4218468 -0.7037449 0.2732904 -0.4100004 0.8478587 -0.6460912 -0.05692303 0.5742743 -0.8689728 0.3605282 0.5309281 -0.566828 0.2402662 0.1395346 0.03385222 -0.5771587 0.5592375 -0.2928201 0.8267784 0.2826709 0.3772859 0.9434552 -0.64131 -0.6371055 0.5215001 -0.257892 
-0.4702388 -0.4489459 -0.1453813 0.8730156 0.2907452 0.5253265 -0.4992005 -0.992425 0.4148683 -0.02339852 0.7435532 0.1507138 0.0870446 -0.6997283 -0.2090102 0.3440945 0.3301546 0.9539137 0.1664718 0.5464227 -0.5331862 -0.8476212 -0.3569037 -0.7008872 0.8914976 0.6821585 0.1407911 -0.3323463 -0.0161947 -0.006318212 
0.8959312 0.9403601 -0.663063 0.2289578 0.9575467 -0.9816191 -0.6059682 -0.9686317 0.2871494 -0.9256477 0.06256616 -0.5929046 0.5800595 0.03639233 0.1681756 0.04613364 0.851243 0.9090309 0.204733 -0.6765523 0.4201495 -0.3378881 -0.4708847 0.4924235 0.9296498 -0.0593034 -0.2566086 -0.6615782 -0.08558691 -0.6275957 
0.3015432 0.3352339 -0.6075711 -0.6496165 0.5377791 0.6277881 0.581857 0.3751301 0.8123794 -0.1626312 0.4980805 -0.3499614 -0.1368088 -0.8796227 -0.8979166 -0.9464123 -0.3965353 -0.902122 -0.7878098 0.1253759 0.1872512 -0.3963779 -0.4813942 0.004354835 0.7777977 0.8761139 0.7834623 -0.8208222 -0.4696597 -0.7548885 
0.5850751 -0.2210037 0.2562353 -0.3675607 0.4151878 0.381823 0.9395933 0.5259852 0.4472029 -0.2882742 0.8047967 0.9854333 0.740618 0.1429452 0.4424658 -0.7513747 -0.8611543 0.5899351 -0.7770374 -0.4919759 0.2538752 -0.8677516 0.9849861 0.106824 -0.08802903 0.543345 0.962625 -0.9581792 0.7968338 -0.853189 
0.3126917 0.9262292 0.830869 0.8674371 -0.5449729 -0.9072073 0.09630001 0.6810942 0.2172776 -0.001549125 0.6123941 0.8398843 -0.5715327 0.7799222 -0.8537958 0.4829101 0.2266074 0.973593 -0.1938535 0.2887604 -0.1624023 0.07115686 -0.850163 -0.8538015 -0.5568092 -0.9314103 0.9286141 -0.8161485 -0.7346089 -0.159778 
30
1
0.2099794 
0.1728388 
0.07964838 
-0.6988783 
0.6970603 
-0.3440195 
0.2947983 
0.7219098 
0.9872859 
-0.553174 
0.6675582 
-0.6371348 
0.9941342 
-0.928669 
-0.8917768 
-0.8975682 
-0.8308151 
-0.8717773 
0.947006 
-0.9452546 
0.6850214 
-0.430936 
0.9580247 
0.8711307 
0.7191033 
0.3711118 
0.5300348 
0.9219799 
0.9149885 
0.5289156 
6
30
-0.2885886 0.06541121 -0.5918298 0.6233358 0.04392707 0.9027755 -0.04706109 0.8968999 0.8478587 0.7724822 -0.05692303 0.5742743 -0.8689728 -0.4822448 -0.3423616 -0.09715116 0.905525 0.6848838 0.03385222 -0.5771587 -0.6892867 0.2691981 0.7163887 0.2826709 0.3772859 0.9434552 -0.4591469 -0.6371055 -0.1121074 -0.4797701 
-0.4702388 0.9571142 -0.1453813 0.337162 0.2907452 0.5253265 -0.4992005 -0.992425 0.4148683 -0.02339852 0.7435532 0.6646261 0.0870446 0.2469643 0.9216905 0.3440945 0.3301546 0.8184559 -0.5912461 0.5464227 -0.4055094 0.1137789 0.8666778 -0.9881628 0.8914976 0.6821585 -0.09832203 -0.3323463 0.7428892 -0.006318212 
0.8959312 0.3279774 -0.663063 0.2289578 0.9575467 -0.9816191 0.8930228 -0.1106025 -0.5764735 -0.9256477 0.4261181 -0.009432197 0.5800595 0.03639233 0.1681756 0.04613364 0.851243 -0.4249614 0.9151533 0.9664314 0.4201495 0.4384093 -0.4708847 0.005502105 0.9296498 0.6811116 -0.08875215 -0.6615782 -0.08558691 -0.6275957 
0.3015432 0.3352339 -0.6075711 -0.639576 0.8548896 0.8278866 0.581857 -0.3441964 0.8123794 -0.1626312 0.4980805 -0.3499614 0.05790246 -0.8796227 -0.8979166 -0.9464123 -0.8296103 -0.902122 -0.7878098 0.1253759 0.4461105 -0.3963779 0.8193634 0.004354835 0.7777977 0.9806795 0.7834623 -0.8208222 -0.4696597 -0.7548885 
0.5850751 -0.2210037 0.2562353 -0.3675607 0.4151878 0.381823 0.9395933 0.5259852 0.4472029 -0.2882742 0.8047967 -0.3960167 0.740618 0.006498218 -0.1566449 -0.1611217 -0.8611543 0.5899351 0.4623272 -0.5061011 0.2538752 0.2944705 0.9849861 0.106824 -0.6618633 0.4743769 -0.558718 -0.001784444 0.08514631 -0.853189 
0.1135606 0.5998416 0.4061651 0.7198098 -0.5449729 -0.2762831 0.09630001 0.9913688 0.3628969 -0.001549125 0.6123941 0.8398843 0.288367 0.7799222 0.4351263 0.4829101 0.2266074 0.2838707 -0.4344853 0.2887604 -0.1624023 0.07115686 -0.850163 0.09362781 -0.5568092 -0.9314103 0.9286141 -0.8161485 -0.3886575 -0.159778 
30
1
0.2099794 
0.1728388 
0.07964838 
-0.8115706 
-0.5170584 
-0.3440195 
0.2947983 
0.7219098 
0.9872859 
-0.553174 
0.6675582 
-0.6371348 
-0.5801375 
-0.928669 
-0.8917768 
-0.8975682 
-0.8308151 
-0.8717773 
0.947006 
-0.9452546 
0.6850214 
-0.430936 
-0.01134646 
0.8711307 
0.7191033 
0.3711118 
0.5300348 
0.9219799 
0.9149885 
0.5289156 
6
30
0.2520125 -0.2036124 -0.5918298 0.6233358 0.4218468 -0.7037449 0.3855645 -0.4100004 0.8478587 -0.7682524 -0.05692303 0.5742743 -0.8689728 -0.4822448 0.5309281 -0.09715116 0.905525 0.9968162 0.03385222 -0.5771587 0.5592375 -0.159113 0.7163887 0.2826709 0.3772859 0.9434552 -0.64131 -0.6371055 0.8955078 -0.257892 
-0.4702388 -0.4489459 -0.1453813 0.337162 0.2907452 0.5253265 -0.3185397 -0.992425 0.4148683 -0.02339852 0.7435532 -0.3627385 0.0870446 -0.6997283 -0.2090102 0.3440945 0.3301546 0.8184559 0.1664718 0.3836512 -0.4055094 0.09587967 -0.3569037 -0.9881628 0.8914976 0.6821585 -0.09832203 -0.3323463 -0.2857808 -0.006318212 
0.8959312 0.9403601 -0.663063 0.2289578 0.9575467 -0.9816191 0.8656275 0.110598 -0.7552607 -0.9256477 0.3319099 -0.5929046 0.5800595 -0.4233168 0.1681756 0.04613364 0.851243 -0.4249614 0.204733 -0.6765523 0.4201495 0.4384093 0.4934549 0.37591 0.9296498 -0.09378588 -0.08875215 -0.6615782 0.9402916 -0.6275957 
0.3015432 0.3352339 -0.6075711 -0.639576 0.8548896 0.6277881 0.581857 -0.3441964 0.8123794 -0.1626312 0.8691928 -0.3499614 -0.7105801 -0.8796227 -0.8979166 -0.9464123 -0.5763514 -0.902122 -0.7878098 0.1253759 -0.9436333 -0.3963779 -0.4813942 0.004354835 0.7777977 0.9806795 0.7834623 -0.8208222 -0.4696597 -0.7548885 
0.5850751 -0.2210037 0.2562353 -0.09278071 0.4151878 0.381823 0.2602105 0.5259852 0.4472029 -0.2882742 -0.4288267 0.9854333 0.740618 -0.3474919 0.4424658 -0.7513747 -0.8611543 0.5899351 0.4623272 -0.5061011 0.4669158 0.2944705 0.9849861 0.106824 -0.08802903 0.4743769 -0.558718 -0.9581792 0.08514631 -0.853189 
0.3126917 0.5998416 0.830869 0.7198098 -0.5449729 -0.2762831 0.09630001 0.6810942 0.2172776 -0.001549125 -0.5314555 0.3117306 -0.5715327 0.7799222 0.4351263 0.4829101 0.2266074 0.973593 -0.4344853 0.2887604 -0.1624023 0.07115686 -0.850163 -0.8538015 -0.5568092 -0.9314103 0.9286141 -0.8161485 -0.7346089 -0.159778 
30
1
-0.190477 
0.3409152 
0.07964838 
-0.8115706 
0.6970603 
-0.3440195 
0.5887663 
0.7219098 
0.9872859 
-0.06093466 
0.6675582 
-0.6371348 
0.9941342 
-0.928669 
-0.8917768 
-0.8975682 
-0.5297592 
-0.8717773 
0.947006 
0.3298449 
0.6850214 
-0.430936 
0.1853763 
0.8711307 
0.7191033 
0.3711118 
0.5300348 
0.9219799 
0.9149885 
0.5289156 
