6
30
0.4492755 0.9833069 -0.1215659 -0.7902153 0.1491963 -0.4048592 0.5205789 -0.0276159 -0.6425495 -0.5905852 0.6462591 0.2788367 0.4128191 -0.09217322 0.3315105 -0.03514493 -0.9419622 -0.3438283 -0.9359329 0.101787 0.09573758 -0.4581455 0.9935117 0.4086723 0.3647508 0.1854585 -0.1309053 -0.2863697 0.5536919 -0.2044793 
0.4815728 -0.5338383 -0.4641637 -0.536783 0.2980027 0.8240762 0.07351673 -0.6494238 0.1080323 0.8452196 0.8081269 -0.725553 -0.9613521 -0.5023 0.1647903 -0.1043299 -0.7680292 0.9038568 -0.6221452 -0.1245784 -0.02421272 0.8705225 -0.6774247 -0.4376658 0.005669713 -0.5642385 0.2097622 0.6959891 0.8954372 -0.7332401 
-0.8718684 0.6674652 -0.2602834 0.210971 0.00422442 0.1603111 0.5265248 0.5249071 -0.2491428 0.4272065 0.9489527 0.1178914 -0.3574384 -0.8452878 -0.9309483 0.7598336 -0.7306175 0.453464 -0.2344164 -0.5944841 -0.8119235 -0.3117741 0.6832609 0.02100003 0.3300335 -0.4245437 -0.3499306 -0.2603325 0.8566856 -0.8401709 
0.3237774 0.4651131 -0.53878 0.4848957 -0.8927121 0.03432381 0.6736028 0.3101773 -0.4045411 0.8533752 -0.3830353 0.4803569 0.7758396 -0.1225404 0.8873487 0.8989787 -0.2078608 0.3451495 0.7687016 0.6193099 -0.1262249 -0.5554876 0.3160441 0.3482253 0.5886488 0.880964 0.4586003 -0.9903176 0.1322392 -0.8163104 
-0.4181229 0.02125537 -0.4200236 -0.72877 -0.4147042 0.2175037 -0.1653408 0.07373178 0.7833643 0.3748908 -0.5850105 0.3864617 0.8415418 -0.3325588 -0.1440033 -0.1007174 -0.57126 -0.9137063 0.562829 -0.6547554 -0.1697077 -0.9898524 -0.6886227 -0.7127306 0.2167703 0.8640811 0.1025881 0.9708605 0.2857754 -0.8077703 
0.2095178 -0.4195951 0.4190387 0.7593558 -0.04621589 -0.134555 0.6142418 0.5134368 -0.5117953 0.3427362 -0.2772833 0.8656976 -0.6444306 -0.9519598 -0.2960154 0.2440735 0.9295158 0.6353197 0.1670772 -0.9654727 0.6278152 0.7872257 -0.2073108 -0.3635756 -0.2904609 0.2618968 -0.02690136 -0.2825657 -0.6041689 0.5328333 
30
1
-0.3398944 
0.5735233 
-0.699995 
-0.5528555 
0.5502427 
0.1803688 
0.2883866 
0.7686567 
-0.1687752 
-0.6807284 
-0.7956088 
0.1254491 
0.6933534 
-0.2302855 
-0.1532828 
0.9175992 
0.06746686 
-0.6526728 
0.8309734 
0.8306665 
0.3302564 
-0.7469406 
0.6145368 
-0.5344524 
0.7967448 
0.7698762 
0.9415138 
0.5874772 
0.8286769 
-0.09028995 
6
30
0.4492755 0.9833069 -0.1215659 -0.7902153 0.1491963 -0.4048592 0.5205789 -0.0276159 -0.6425495 -0.5905852 0.6462591 0.2788367 0.4128191 -0.09217322 0.3315105 -0.03514493 -0.9419622 -0.3438283 -0.9359329 0.101787 0.09573758 -0.4581455 0.9935117 0.4086723 0.3647508 0.1854585 -0.1309053 -0.2863697 0.5536919 -0.2044793 
0.4815728 -0.5338383 -0.4641637 -0.536783 0.2980027 0.8240762 0.07351673 -0.930747 0.1080323 0.8452196 0.8081269 -0.725553 -0.9613521 -0.5023 0.1647903 -0.1043299 -0.7680292 0.9038568 -0.6221452 -0.1245784 -0.02421272 0.2394155 -0.6774247 -0.4376658 0.005669713 -0.5642385 0.2097622 0.6959891 0.8954372 -0.7332401 
-0.8718684 0.6674652 -0.2602834 0.210971 0.00422442 0.1603111 0.5265248 0.5249071 -0.2491428 0.4272065 0.9489527 0.1178914 -0.3574384 -0.8452878 -0.9309483 0.7598336 -0.7306175 0.453464 -0.2344164 -0.2139095 -0.8119235 -0.3117741 0.6832609 0.02100003 0.3300335 -0.4245437 -0.3499306 -0.2603325 0.8566856 -0.8401709 
0.3237774 0.4651131 -0.53878 0.4848957 -0.8927121 0.03432381 0.6736028 0.3101773 -0.4045411 0.8533752 -0.3830353 0.4803569 0.7758396 -0.1225404 0.8873487 0.8989787 -0.2078608 0.3451495 0.7687016 0.6193099 -0.1262249 -0.5554876 0.3160441 0.3482253 0.5886488 0.880964 0.4586003 -0.9903176 0.1322392 -0.8163104 
-0.4181229 0.02125537 -0.4200236 -0.72877 -0.4147042 0.2175037 -0.1653408 0.07373178 0.7833643 0.3748908 -0.5850105 0.3864617 0.8415418 -0.3325588 -0.1440033 -0.1007174 -0.57126 -0.9137063 0.562829 -0.6547554 -0.1697077 -0.9898524 -0.6886227 -0.7127306 0.2167703 0.8640811 0.1025881 0.9708605 0.2857754 -0.8077703 
0.2095178 -0.4195951 0.4190387 0.7593558 -0.04621589 -0.134555 0.6142418 0.5134368 -0.5117953 0.3427362 -0.2772833 0.8656976 -0.6444306 -0.9519598 -0.2960154 0.2440735 0.9295158 0.6353197 0.1670772 -0.9654727 0.6278152 0.7872257 -0.2073108 -0.3635756 -0.2904609 0.2618968 -0.02690136 -0.2825657 -0.6041689 0.5328333 
30
1
-0.3398944 
0.5735233 
-0.699995 
-0.5528555 
0.5502427 
0.1803688 
0.2883866 
0.7686567 
-0.1687752 
-0.6807284 
-0.7956088 
0.1254491 
0.6933534 
-0.2302855 
-0.1532828 
0.9175992 
0.06746686 
-0.6526728 
0.8309734 
0.8306665 
0.3302564 
-0.7469406 
0.6145368 
-0.5344524 
0.7967448 
0.7698762 
0.9415138 
0.5874772 
0.8286769 
-0.09028995 
6
30
0.4492755 0.9833069 -0.1215659 -0.7902153 0.1491963 -0.4048592 0.5205789 -0.0276159 -0.6425495 -0.5905852 0.6462591 0.2788367 0.4128191 -0.09217322 0.3315105 -0.03514493 -0.9419622 -0.3438283 -0.9359329 0.101787 0.09573758 -0.4581455 0.9935117 0.4086723 0.3647508 0.1854585 -0.1309053 -0.2863697 0.5536919 -0.2044793 
0.4815728 -0.5338383 -0.4641637 -0.536783 0.479644 0.8240762 0.07351673 -0.6494238 0.1080323 -0.2634932 0.8081269 -0.725553 -0.9613521 -0.5023 0.1647903 -0.1043299 0.4895391 0.9038568 -0.6221452 -0.241187 -0.02421272 0.8705225 -0.6774247 -0.4376658 0.005669713 -0.5642385 0.2097622 0.6959891 0.8954372 -0.7332401 
-0.8718684 0.6674652 -0.2602834 0.210971 0.00422442 0.1603111 0.5265248 0.5249071 -0.2491428 0.4272065 0.9489527 0.1178914 -0.3574384 -0.8452878 -0.9309483 0.7598336 0.9232507 0.453464 -0.2344164 -0.5944841 -0.8119235 -0.3117741 0.9021938 0.02100003 0.3300335 -0.4245437 -0.3499306 -0.2603325 0.8566856 -0.8401709 
0.3237774 0.4651131 -0.53878 0.4848957 -0.8927121 0.03432381 0.6736028 0.3101773 -0.4045411 0.8533752 -0.3830353 0.9485817 0.7758396 -0.1225404 0.8873487 0.8989787 -0.2078608 0.3451495 0.7687016 0.6193099 -0.1262249 -0.5554876 0.3160441 0.3482253 0.5886488 0.880964 -0.3628496 -0.9903176 0.1322392 -0.8163104 
-0.4181229 0.02125537 -0.4200236 -0.72877 -0.4147042 0.2175037 0.5526989 0.07373178 0.7833643 0.3748908 -0.5850105 0.3864617 0.8415418 -0.3325588 -0.1440033 -0.1007174 -0.5983355 -0.9137063 0.562829 -0.6547554 -0.9330707 -0.9898524 -0.6886227 -0.7127306 0.2167703 0.8640811 0.1025881 0.9708605 0.2857754 -0.8077703 
0.2095178 -0.4195951 0.4190387 0.7593558 -0.04621589 -0.134555 0.6142418 -0.04437935 -0.5117953 0.3427362 -0.2772833 0.8656976 -0.6444306 -0.9519598 -0.2960154 0.2440735 0.9295158 0.6353197 0.1670772 -0.9654727 0.6278152 0.7872257 -0.2073108 -0.3635756 -0.2904609 0.2618968 -0.02690136 -0.2825657 -0.9009347 0.5328333 
30
1
-0.3398944 
0.5735233 
-0.699995 
-0.4250189 
0.5502427 
0.1803688 
0.2883866 
0.7686567 
-0.1687752 
-0.6807284 
-0.7956088 
0.1254491 
0.6933534 
-0.2302855 
-0.1532828 
0.9175992 
0.06746686 
-0.6526728 
0.8309734 
0.8306665 
0.3302564 
-0.7469406 
0.6145368 
-0.5344524 
0.7967448 
0.7698762 
0.9415138 
0.5874772 
0.8286769 
-0.09028995 
6
30
0.4492755 0.9833069 -0.1215659 -0.7902153 0.1491963 -0.4048592 0.5205789 -0.0276159 -0.6425495 -0.5905852 0.6462591 0.2788367 0.4128191 -0.09217322 0.3315105 -0.03514493 -0.9419622 -0.3438283 -0.9359329 0.101787 0.09573758 -0.4581455 0.9935117 0.4086723 0.3647508 0.1854585 -0.1309053 -0.2863697 0.5536919 -0.2044793 
0.4815728 -0.5338383 -0.4641637 -0.536783 0.2980027 0.8240762 0.07351673 -0.6494238 0.1080323 0.8452196 0.8081269 -0.725553 -0.9613521 -0.5023 0.1647903 -0.1043299 -0.7680292 0.9038568 -0.6221452 -0.1245784 -0.02421272 0.8705225 -0.6774247 -0.4376658 0.005669713 -0.5642385 0.2097622 0.6959891 0.8954372 -0.7332401 
-0.8718684 0.6674652 -0.2602834 0.210971 0.00422442 0.1603111 0.5265248 0.5249071 -0.2491428 0.4272065 0.9489527 0.1178914 -0.3574384 -0.8452878 -0.9309483 0.7598336 -0.7306175 0.453464 -0.2344164 -0.5944841 -0.8119235 -0.3117741 0.6832609 0.02100003 0.3300335 -0.4245437 -0.3499306 -0.2603325 0.8566856 -0.8401709 
0.3237774 0.4651131 -0.53878 0.4848957 -0.8927121 0.03432381 0.6736028 0.3101773 -0.4045411 0.8533752 -0.3830353 0.4803569 0.7758396 -0.1225404 0.8873487 0.8989787 -0.2078608 0.3451495 0.7687016 0.6193099 -0.1262249 -0.5554876 0.3160441 0.3482253 0.5886488 0.880964 0.4586003 -0.9903176 0.1322392 -0.8163104 
-0.4181229 0.02125537 -0.4200236 -0.72877 -0.4147042 0.2175037 -0.1653408 0.07373178 0.7833643 0.3748908 -0.5850105 0.3864617 0.8415418 -0.3325588 -0.1440033 -0.1007174 -0.57126 -0.9137063 0.562829 -0.6547554 -0.1697077 -0.9898524 -0.6886227 -0.7127306 0.2167703 0.8640811 0.1025881 0.9708605 0.2857754 -0.8077703 
0.2095178 -0.4195951 0.4190387 0.7593558 -0.04621589 -0.134555 0.6142418 0.5134368 -0.5117953 0.3427362 -0.2772833 0.8656976 -0.6444306 -0.9519598 -0.2960154 0.2440735 0.9295158 0.6353197 0.1670772 -0.9654727 0.6278152 0.7872257 -0.2073108 -0.3635756 -0.2904609 0.2618968 -0.02690136 -0.2825657 -0.6041689 0.5328333 
30
1
-0.3398944 
0.5735233 
-0.699995 
-0.5528555 
0.5502427 
0.1803688 
0.2883866 
0.7686567 
-0.1687752 
-0.6807284 
-0.7956088 
0.1254491 
0.6933534 
-0.2302855 
-0.1532828 
0.9175992 
0.06746686 
-0.6526728 
0.8309734 
0.8306665 
0.3302564 
-0.7469406 
0.6145368 
-0.5344524 
0.7967448 
0.7698762 
0.9415138 
0.5874772 
0.8286769 
-0.09028995 
6
30
0.4492755 0.9833069 -0.1215659 -0.7902153 0.1491963 -0.4048592 0.5205789 -0.0276159 -0.6425495 -0.5905852 0.6462591 0.2788367 0.4128191 -0.09217322 0.3315105 -0.03514493 -0.9419622 -0.3438283 -0.9359329 0.101787 0.09573758 -0.4581455 0.9935117 0.4086723 0.3647508 0.1854585 -0.1309053 -0.2863697 0.5536919 -0.2044793 
0.4815728 -0.5338383 -0.4641637 -0.536783 0.2980027 0.8240762 0.07351673 -0.6494238 0.1080323 0.8452196 0.8081269 -0.725553 -0.9613521 -0.5023 0.1647903 -0.1043299 -0.7680292 0.9038568 -0.6221452 -0.1245784 -0.02421272 0.8705225 -0.6774247 -0.4376658 0.005669713 -0.5642385 0.2097622 0.6959891 0.8954372 -0.7332401 
-0.8718684 0.6674652 -0.2602834 0.210971 0.00422442 0.1603111 0.5265248 0.5249071 -0.2491428 0.4272065 0.9489527 0.1178914 -0.3574384 -0.8452878 -0.9309483 0.7598336 -0.7306175 0.453464 -0.2344164 -0.5944841 -0.8119235 -0.3117741 0.6832609 0.02100003 0.3300335 -0.4245437 -0.3499306 -0.2603325 0.8566856 -0.8401709 
0.3237774 0.4651131 -0.53878 0.4848957 -0.8927121 0.03432381 0.6736028 0.3101773 -0.4045411 0.8533752 -0.3830353 0.4803569 0.7758396 -0.1225404 0.8873487 0.8989787 -0.2078608 0.3451495 0.7687016 0.6193099 -0.1262249 -0.5554876 0.3160441 0.3482253 0.5886488 0.880964 0.4586003 -0.9903176 0.1322392 -0.8163104 
-0.4181229 0.02125537 -0.4200236 -0.72877 -0.4147042 0.2175037 -0.1653408 0.07373178 0.7833643 0.3748908 -0.5850105 0.3864617 0.8415418 -0.3325588 -0.1440033 -0.1007174 -0.57126 -0.9137063 0.562829 -0.6547554 -0.1697077 -0.9898524 -0.6886227 -0.7127306 0.2167703 0.8640811 0.1025881 0.9708605 0.2857754 -0.8077703 
0.2095178 -0.4195951 0.4190387 0.7593558 -0.04621589 -0.134555 0.6142418 0.5134368 -0.5117953 0.3427362 -0.2772833 0.8656976 -0.6444306 -0.9519598 -0.2960154 0.2440735 0.9295158 0.6353197 0.1670772 -0.9654727 0.6278152 0.7872257 -0.2073108 -0.3635756 -0.2904609 0.2618968 -0.02690136 -0.2825657 -0.6041689 0.5328333 
30
1
-0.3398944 
0.5735233 
-0.699995 
-0.5528555 
0.5502427 
0.1803688 
0.2883866 
0.7686567 
-0.1687752 
-0.6807284 
-0.7956088 
0.1254491 
0.6933534 
-0.2302855 
-0.1532828 
0.9175992 
0.06746686 
-0.6526728 
0.8309734 
0.8306665 
0.3302564 
-0.7469406 
0.6145368 
-0.5344524 
0.7967448 
0.7698762 
0.9415138 
0.5874772 
0.8286769 
-0.09028995 
6
30
0.4492755 0.9833069 -0.1215659 -0.7902153 0.1491963 -0.4048592 0.5205789 -0.0276159 -0.6425495 -0.5905852 0.6462591 0.2788367 0.4128191 -0.09217322 0.3315105 -0.03514493 -0.9419622 -0.3438283 -0.9359329 0.101787 0.09573758 -0.4581455 0.9935117 0.4086723 0.3647508 0.1854585 -0.1309053 -0.2863697 0.5536919 -0.2044793 
0.4815728 -0.5338383 -0.4641637 -0.536783 0.2980027 0.8240762 0.07351673 -0.6494238 0.1080323 0.8452196 0.8081269 -0.725553 -0.9613521 -0.5023 0.1647903 -0.1043299 -0.7680292 0.9038568 -0.6221452 -0.1245784 -0.02421272 0.8705225 -0.6774247 -0.4376658 0.005669713 -0.5642385 0.2097622 0.6959891 0.8954372 -0.7332401 
-0.8718684 0.6674652 -0.2602834 0.210971 0.00422442 0.1603111 0.5265248 0.5249071 -0.2491428 0.4272065 0.9489527 0.1178914 -0.3574384 -0.8452878 -0.9309483 0.7598336 -0.7306175 0.453464 -0.2344164 -0.5944841 -0.8119235 -0.3117741 0.6832609 0.02100003 0.3300335 -0.4245437 -0.3499306 -0.2603325 0.8566856 -0.8401709 
0.3237774 0.4651131 -0.53878 0.4848957 -0.8927121 0.03432381 0.6736028 0.3101773 -0.4045411 0.8533752 -0.3830353 0.4803569 0.7758396 -0.1225404 0.8873487 0.8989787 -0.2078608 0.3451495 0.7687016 0.6193099 -0.1262249 -0.5554876 0.3160441 0.3482253 0.5886488 0.880964 0.4586003 -0.9903176 0.1322392 -0.8163104 
-0.4181229 0.02125537 -0.4200236 -0.72877 -0.4147042 0.2175037 -0.1653408 0.07373178 0.7833643 0.3748908 -0.5850105 0.3864617 0.8415418 -0.3325588 -0.1440033 -0.1007174 -0.57126 -0.9137063 0.562829 -0.6547554 -0.1697077 -0.9898524 -0.6886227 -0.7127306 0.2167703 0.8640811 0.1025881 0.9708605 0.2857754 -0.8077703 
0.2095178 -0.4195951 0.4190387 0.7593558 -0.04621589 -0.134555 0.6142418 0.5134368 -0.5117953 0.3427362 -0.2772833 0.8656976 -0.6444306 -0.9519598 -0.2960154 0.2440735 0.9295158 0.6353197 0.1670772 -0.9654727 0.6278152 0.7872257 -0.2073108 -0.3635756 -0.2904609 0.2618968 -0.02690136 -0.2825657 -0.6041689 0.5328333 
30
1
-0.3398944 
0.5735233 
-0.699995 
-0.5528555 
0.5502427 
0.1803688 
0.2883866 
0.7686567 
-0.1687752 
-0.6807284 
-0.7956088 
0.1254491 
0.6933534 
-0.2302855 
-0.1532828 
0.9175992 
0.06746686 
-0.6526728 
0.8309734 
0.8306665 
0.3302564 
-0.7469406 
0.6145368 
-0.5344524 
0.7967448 
0.7698762 
0.9415138 
0.5874772 
0.8286769 
-0.09028995 
6
30
0.4492755 0.9833069 -0.1215659 -0.7902153 0.737947 -0.4048592 0.5205789 -0.0276159 -0.6425495 -0.5905852 0.6462591 0.2788367 0.4128191 -0.09217322 0.3315105 -0.03514493 -0.9419622 -0.3438283 -0.9359329 0.101787 0.09573758 -0.4581455 0.9935117 0.4086723 0.3647508 0.1854585 -0.1309053 -0.2863697 0.5536919 -0.2044793 
0.4815728 -0.5338383 -0.4641637 -0.536783 0.2980027 0.8240762 -0.2442614 -0.6494238 0.1080323 0.188861 0.8081269 -0.725553 -0.9613521 -0.5023 -0.9910438 -0.2625474 0.4460554 0.9038568 -0.6221452 -0.1245784 -0.02421272 -0.03644383 -0.6774247 -0.4376658 0.005669713 -0.5642385 0.2097622 0.6959891 0.8954372 -0.7332401 
-0.8718684 0.6674652 -0.2602834 0.210971 0.00422442 0.1603111 0.5265248 0.5249071 -0.2491428 0.4272065 0.9489527 0.1178914 -0.3574384 -0.8452878 -0.9309483 0.7598336 0.4631102 0.9375994 -0.2344164 0.5665572 -0.8119235 -0.3117741 0.6832609 0.02100003 0.3300335 -0.4245437 -0.1269094 -0.2603325 0.8566856 -0.8401709 
-0.5965919 0.4651131 -0.53878 0.4848957 -0.8927121 0.03432381 0.6736028 0.3101773 -0.4045411 0.8533752 -0.3830353 0.4803569 0.7758396 0.7842813 0.8873487 0.9284792 0.2889352 0.3451495 0.7687016 0.6193099 -0.1262249 -0.5554876 0.3160441 0.3482253 0.9662087 0.880964 0.4586003 -0.08009374 0.1322392 -0.8163104 
-0.4181229 0.02125537 -0.4200236 -0.9425449 -0.4147042 0.2175037 -0.1653408 0.07373178 0.7833643 0.3748908 -0.5850105 0.3864617 -0.8046436 0.6662076 -0.1440033 -0.1007174 0.4950969 0.1876422 0.562829 -0.6547554 -0.1697077 -0.9898524 -0.6886227 -0.7127306 0.2167703 0.8640811 0.1025881 0.9708605 0.2857754 -0.8077703 
0.2095178 -0.4195951 0.4190387 0.7593558 -0.04621589 -0.134555 0.6142418 0.5134368 -0.6770365 0.695363 -0.2772833 0.8656976 -0.6444306 -0.9519598 -0.2960154 0.2440735 0.9295158 -0.4756826 0.1670772 -0.9654727 0.6278152 0.7872257 -0.2073108 -0.3635756 -0.2904609 0.2618968 -0.02690136 -0.2825657 -0.700732 0.5328333 
30
1
-0.3398944 
0.5735233 
-0.699995 
-0.5528555 
0.5502427 
0.1803688 
0.2883866 
0.7686567 
-0.1687752 
-0.6807284 
-0.7956088 
0.1254491 
0.6933534 
-0.2302855 
-0.1532828 
0.9175992 
-0.726392 
-0.6526728 
0.8309734 
0.8306665 
0.3302564 
-0.7469406 
0.6145368 
-0.5344524 
0.7967448 
0.7698762 
0.9415138 
0.8829658 
0.8286769 
-0.09028995 
6
30
0.6053059 0.06541121 -0.5918298 0.6233358 0.4218468 -0.7037449 0.175378 -0.4100004 0.8478587 -0.7682524 -0.05692303 0.5742743 -0.8689728 -0.4822448 0.5309281 -0.09715116 0.905525 0.6848838 0.03385222 -0.5771587 0.5592375 -0.159113 0.7163887 0.2826709 0.3772859 0.9434552 -0.64131 -0.6371055 0.5215001 -0.257892 
-0.4702388 -0.4489459 -0.1453813 0.337162 0.2907452 0.5253265 -0.4992005 -0.992425 0.4148683 -0.02339852 0.7435532 0.1507138 0.0870446 -0.6997283 -0.2090102 0.3440945 0.4355089 0.8184559 0.1664718 0.5464227 -0.4055094 0.09587967 -0.3569037 -0.9881628 0.8914976 0.6821585 -0.09832203 -0.3323463 -0.0161947 -0.006318212 
0.8959312 0.9403601 -0.663063 0.2289578 0.9575467 -0.9816191 0.8930228 0.110598 0.2871494 -0.9062057 0.3319099 -0.5929046 0.5800595 0.03639233 0.1681756 0.04613364 0.851243 -0.4249614 0.204733 -0.6765523 0.4201495 0.4384093 -0.4708847 0.37591 0.9296498 0.1705836 -0.08875215 -0.6615782 -0.08558691 -0.6275957 
-0.2625335 0.3352339 -0.6075711 0.4432745 0.8548896 0.6277881 0.115697 -0.3441964 0.8123794 -0.722991 0.4980805 -0.9870706 0.05790246 -0.8796227 -0.8979166 -0.9464123 -0.8296103 -0.5905032 -0.7878098 0.6140935 0.4461105 -0.4969426 -0.4813942 0.3219163 0.7777977 0.9691586 0.1062864 -0.8208222 0.1835493 -0.7548885 
0.5850751 -0.216895 0.2562353 -0.3675607 0.4151878 0.381823 0.9395933 0.5259852 0.4472029 -0.2882742 0.8047967 0.9854333 0.740618 -0.1101669 -0.6205494 0.008897901 -0.8611543 0.5899351 0.4623272 -0.5061011 0.2538752 0.2944705 0.9849861 0.106824 0.025967 0.4743769 -0.558718 -0.9581792 0.8444078 -0.853189 
0.2464613 0.5998416 0.830869 -0.8929451 -0.5449729 -0.9492509 0.09630001 0.6810942 -0.852839 -0.001549125 -0.1735476 0.8398843 -0.5715327 0.7799222 0.4351263 0.7972555 0.2266074 -0.5446992 -0.6538715 -0.9502964 -0.1624023 -0.3968793 -0.4686836 -0.8538015 -0.5568092 -0.9314103 0.9286141 0.4452288 -0.5697999 -0.159778 
30
1
0.2099794 
0.1728388 
0.07964838 
-0.8115706 
0.6970603 
-0.3440195 
0.7885852 
0.7219098 
0.9872859 
-0.553174 
0.6675582 
-0.6371348 
0.9941342 
-0.928669 
-0.8917768 
-0.8975682 
-0.8308151 
0.2513942 
0.947006 
-0.9452546 
0.6850214 
-0.430936 
0.1853763 
0.8711307 
0.7191033 
0.3711118 
0.5300348 
0.9219799 
0.9149885 
0.5289156 
6
30
0.4492755 0.9833069 -0.1215659 -0.7902153 0.1491963 -0.4048592 0.5205789 -0.0276159 -0.6425495 -0.6177101 -0.1337742 0.2788367 0.7399564 -0.09217322 0.3315105 -0.03514493 -0.9419622 -0.3438283 -0.9359329 0.101787 0.09573758 -0.4581455 -0.5180442 0.4086723 0.3647508 0.7556858 -0.1309053 -0.2863697 0.5536919 0.2539019 
0.4815728 -0.5338383 -0.4641637 -0.536783 0.2980027 0.8240762 0.07351673 -0.6494238 0.1080323 0.8452196 0.8081269 -0.725553 -0.9613521 -0.5023 0.1647903 -0.1043299 -0.7680292 0.9038568 -0.6221452 -0.1245784 -0.02421272 0.8705225 -0.6774247 -0.4376658 0.005669713 -0.5642385 0.2097622 0.6959891 0.8954372 -0.7332401 
-0.8718684 0.6674652 -0.2602834 0.210971 0.00422442 0.1603111 0.5265248 0.5249071 -0.2491428 0.4272065 0.9489527 0.1178914 -0.3574384 -0.8452878 -0.9309483 0.7598336 -0.7306175 0.453464 -0.2344164 -0.5944841 -0.8119235 -0.3117741 0.6832609 0.02100003 0.3300335 -0.4245437 -0.3499306 -0.2603325 0.8566856 -0.8401709 
0.3237774 0.4651131 -0.53878 0.4848957 -0.8927121 0.03432381 0.6736028 0.3101773 -0.4045411 0.8533752 -0.3830353 -0.6688437 -0.4239465 -0.1225404 -0.5485592 0.8989787 -0.8773029 0.3451495 0.7687016 0.6193099 0.3813333 -0.5554876 0.3160441 0.3482253 0.5886488 0.880964 0.4586003 -0.9903176 0.1322392 -0.8163104 
-0.4181229 0.02125537 -0.4200236 -0.72877 -0.4147042 -0.9979396 -0.1653408 0.07373178 0.7833643 -0.2908269 -0.1563894 0.3864617 0.8415418 -0.9858818 -0.1440033 -0.1007174 -0.57126 -0.9137063 0.562829 -0.6547554 -0.1697077 -0.9898524 -0.6886227 -0.7127306 0.2167703 0.8640811 0.1025881 0.9708605 0.2857754 0.9262736 
0.2095178 -0.4195951 0.4190387 0.7593558 -0.04621589 -0.134555 0.6142418 0.5134368 -0.4637073 0.3427362 -0.2772833 0.8656976 -0.6444306 -0.9519598 -0.2960154 0.2440735 0.9295158 0.6353197 0.1670772 -0.9654727 0.6278152 0.7872257 -0.6061471 -0.3635756 -0.2904609 0.2618968 -0.02690136 -0.2825657 -0.6041689 0.5328333 
30
1
-0.3398944 
0.5735233 
-0.699995 
-0.5528555 
0.5502427 
0.1803688 
0.2883866 
0.7686567 
-0.1687752 
-0.6807284 
-0.7956088 
0.1254491 
0.6933534 
-0.2302855 
-0.1532828 
0.9175992 
0.4867918 
-0.6526728 
0.8309734 
0.8306665 
0.3302564 
-0.7469406 
0.6145368 
-0.5344524 
0.7967448 
0.7698762 
0.9415138 
0.5874772 
0.8286769 
-0.09028995 
6
30
0.8800929 0.9833069 -0.1215659 -0.7902153 0.1491963 -0.4048592 0.5205789 0.19459 -0.6425495 -0.479185 -0.1337742 0.2788367 0.7399564 -0.09217322 0.3315105 -0.03514493 -0.9419622 -0.3438283 -0.9359329 0.101787 0.09573758 -0.4581455 -0.5180442 0.4086723 -0.5213559 0.7556858 -0.1309053 -0.2863697 -0.1409858 0.2539019 
0.4815728 -0.5338383 0.5207481 -0.536783 0.2980027 0.8240762 0.07351673 -0.6494238 0.1080323 0.8452196 0.8081269 -0.725553 -0.9613521 -0.5023 0.1647903 -0.1043299 -0.7680292 0.9038568 -0.6221452 -0.1245784 -0.02421272 0.8705225 -0.6774247 0.004091144 0.005669713 -0.5642385 0.2097622 0.6959891 0.8954372 -0.7332401 
-0.8718684 0.6674652 -0.2602834 -0.6350915 0.00422442 0.1603111 0.5265248 0.5249071 -0.4848896 0.4272065 0.9489527 0.1178914 0.5060866 -0.8452878 -0.9309483 0.7598336 -0.2625221 0.453464 -0.2344164 -0.5944841 -0.8119235 -0.3117741 0.6832609 0.02100003 0.3300335 -0.4245437 -0.3499306 -0.2603325 0.8715489 -0.8401709 
0.3237774 0.4122007 -0.53878 0.4848957 -0.8927121 0.03432381 0.6736028 0.3101773 -0.4045411 -0.9625783 -0.3830353 -0.6688437 -0.4239465 -0.1225404 -0.5485592 0.8989787 -0.8773029 0.3451495 0.7687016 0.6193099 0.8251748 -0.5554876 0.3160441 0.3482253 0.5886488 0.880964 0.4586003 -0.9903176 0.1322392 -0.8163104 
-0.4181229 0.02125537 -0.4200236 -0.72877 -0.4147042 -0.9979396 -0.1653408 0.07373178 0.7833643 -0.2908269 -0.1563894 0.3864617 0.8415418 -0.9858818 -0.1440033 -0.1007174 -0.57126 -0.9137063 0.9519482 -0.6547554 -0.1697077 -0.9898524 -0.6886227 -0.7127306 -0.7508273 0.8640811 0.1025881 0.9708605 0.2857754 0.9262736 
0.2095178 -0.4195951 0.4190387 0.7593558 -0.04621589 -0.134555 0.6142418 0.5134368 -0.4637073 0.3427362 -0.2772833 0.8656976 -0.6444306 -0.9519598 -0.2960154 0.2440735 0.9295158 0.6353197 0.1670772 -0.9654727 0.6278152 0.706517 -0.6061471 -0.3635756 -0.2904609 0.2618968 -0.02690136 -0.2825657 -0.6041689 0.5328333 
30
1
-0.3398944 
0.5735233 
-0.699995 
-0.5528555 
0.5502427 
-0.2444113 
0.2883866 
0.7686567 
-0.9078741 
-0.6807284 
-0.7956088 
0.1254491 
0.6933534 
-0.2302855 
-0.1532828 
0.9175992 
0.4867918 
-0.6526728 
0.8309734 
0.2715509 
0.3302564 
-0.7469406 
0.6145368 
-0.5344524 
0.7967448 
0.7698762 
0.9415138 
0.5874772 
0.8286769 
-0.09028995 
6
30
0.6053059 0.06541121 -0.5918298 0.6233358 0.4218468 -0.7037449 0.3855645 -0.4100004 0.8478587 -0.7682524 -0.05692303 0.5742743 -0.8689728 -0.4822448 0.5309281 -0.09715116 0.905525 0.6848838 0.03385222 -0.5771587 0.5592375 -0.159113 0.7163887 0.2826709 0.3772859 0.9434552 -0.64131 -0.6371055 0.5215001 -0.257892 
-0.4702388 -0.4489459 -0.1453813 0.337162 0.2907452 0.5253265 -0.4992005 -0.992425 0.4148683 -0.02339852 0.7435532 0.1507138 0.0870446 -0.6997283 -0.2090102 0.3440945 0.3301546 0.8184559 0.1664718 0.5464227 -0.4055094 0.09587967 -0.3569037 -0.9881628 0.8914976 0.6821585 -0.09832203 -0.3323463 -0.0161947 -0.006318212 
0.8959312 0.9403601 -0.663063 0.2289578 0.9575467 -0.9816191 0.8930228 0.110598 0.2871494 -0.9256477 0.3319099 -0.5929046 0.5800595 0.03639233 0.1681756 0.04613364 0.851243 -0.4249614 0.204733 -0.6765523 0.4201495 0.4384093 -0.4708847 0.37591 0.9296498 0.6811116 -0.08875215 -0.6615782 -0.08558691 -0.6275957 
0.3015432 0.3352339 -0.6075711 0.4432745 0.8548896 0.6277881 0.115697 -0.3441964 0.8123794 -0.722991 0.4980805 -0.3499614 0.05790246 -0.8796227 -0.8979166 -0.9464123 -0.8296103 -0.902122 -0.7878098 0.1253759 0.4461105 -0.3963779 -0.4813942 0.004354835 0.7777977 0.9806795 0.1062864 -0.8208222 0.1835493 -0.7548885 
0.5850751 -0.216895 0.2562353 -0.3675607 0.4151878 0.381823 0.9395933 0.5259852 0.4472029 -0.2882742 0.8047967 0.9854333 0.740618 -0.1101669 -0.6205494 0.008897901 -0.8611543 0.5899351 0.4623272 -0.5061011 0.2538752 0.2944705 0.9849861 0.106824 -0.08802903 0.4743769 -0.558718 -0.9581792 0.08514631 -0.853189 
0.2464613 0.5998416 0.830869 -0.8929451 -0.5449729 -0.9492509 0.09630001 0.6810942 0.2172776 -0.001549125 0.6123941 0.8398843 -0.5715327 0.7799222 0.4351263 0.4829101 0.2266074 0.973593 -0.4344853 0.2887604 -0.1624023 -0.3968793 -0.850163 -0.8538015 -0.5568092 -0.9314103 0.9286141 0.4452288 -0.5697999 -0.159778 
30
1
0.2099794 
0.1728388 
0.07964838 
-0.8115706 
0.6970603 
-0.3440195 
0.2947983 
0.7219098 
0.9872859 
-0.553174 
0.6675582 
-0.6371348 
0.9941342 
-0.928669 
-0.8917768 
-0.8975682 
-0.8308151 
-0.8717773 
0.947006 
-0.9452546 
0.6850214 
-0.430936 
0.1853763 
0.8711307 
0.7191033 
0.3711118 
0.5300348 
0.9219799 
0.9149885 
0.5289156 
6
30
0.6053059 0.06541121 -0.5918298 0.6233358 0.4218468 -0.7037449 0.3855645 -0.4100004 0.8478587 -0.7682524 -0.05692303 0.5742743 -0.8689728 -0.4822448 0.5309281 -0.09715116 0.905525 0.6848838 0.03385222 -0.5771587 0.5592375 -0.159113 0.7163887 0.2826709 0.3772859 0.9434552 -0.64131 -0.6371055 0.5215001 -0.257892 
-0.4702388 -0.4489459 -0.1453813 0.337162 0.2907452 0.5253265 -0.4992005 -0.992425 0.4148683 -0.02339852 0.7435532 0.1507138 0.0870446 -0.6997283 -0.2090102 0.3440945 0.3301546 0.8184559 0.1664718 0.5464227 -0.4055094 0.09587967 -0.3569037 -0.9881628 0.8914976 0.6821585 -0.09832203 -0.3323463 -0.0161947 -0.006318212 
0.8959312 0.9403601 -0.663063 0.2289578 0.9575467 -0.9816191 0.8930228 0.110598 0.2871494 -0.9256477 0.3319099 -0.5929046 0.5800595 0.03639233 0.1681756 0.04613364 0.851243 -0.4249614 0.204733 -0.6765523 0.4201495 0.4384093 -0.4708847 0.37591 0.9296498 0.6811116 -0.08875215 -0.6615782 -0.08558691 -0.6275957 
-0.2625335 0.3352339 -0.6075711 0.4432745 0.8548896 0.6277881 0.115697 -0.3441964 0.8123794 -0.722991 0.4980805 -0.9870706 0.05790246 -0.8796227 -0.8979166 -0.9464123 -0.8296103 -0.5905032 -0.7878098 0.6140935 0.4461105 -0.4969426 -0.4813942 0.3219163 0.7777977 0.9691586 0.1062864 -0.8208222 0.1835493 -0.7548885 
0.5850751 -0.216895 0.2562353 -0.3675607 0.4151878 0.381823 0.9395933 0.5259852 0.4472029 -0.2882742 0.8047967 0.9854333 0.740618 -0.1101669 -0.6205494 0.008897901 -0.8611543 0.5899351 0.4623272 -0.5061011 0.2538752 0.2944705 0.9849861 0.106824 0.025967 0.4743769 -0.558718 -0.9581792 0.8444078 -0.853189 
0.2464613 0.5998416 0.830869 -0.8929451 -0.5449729 -0.9492509 0.09630001 0.6810942 -0.852839 -0.001549125 -0.1735476 0.8398843 -0.5715327 0.7799222 0.4351263 0.7972555 0.2266074 -0.5446992 -0.6538715 -0.9502964 -0.1624023 -0.3968793 -0.4686836 -0.8538015 -0.5568092 -0.9314103 0.9286141 0.4452288 -0.5697999 -0.159778 
30
1
0.2099794 
0.1728388 
0.07964838 
-0.8115706 
0.6970603 
-0.3440195 
0.7885852 
0.7219098 
0.9872859 
-0.553174 
0.6675582 
-0.6371348 
0.9941342 
-0.928669 
-0.8917768 
-0.8975682 
-0.8308151 
-0.8717773 
0.947006 
-0.9452546 
0.6850214 
-0.430936 
0.1853763 
0.8711307 
0.7191033 
0.3711118 
0.5300348 
0.9219799 
0.9149885 
0.5289156 
6
30
0.6053059 0.06541121 -0.5918298 0.6233358 0.4218468 -0.7037449 0.175378 -0.4100004 0.8478587 -0.7682524 -0.05692303 0.5742743 -0.8689728 -0.4822448 0.5309281 -0.09715116 0.905525 0.6848838 0.03385222 -0.5771587 0.5592375 -0.159113 0.7163887 0.2826709 0.3772859 0.9434552 -0.64131 -0.6371055 0.5215001 -0.257892 
-0.4702388 -0.4489459 -0.1453813 0.337162 0.2907452 0.5253265 -0.4992005 -0.992425 0.4148683 -0.02339852 0.7435532 0.1507138 0.0870446 -0.6997283 -0.2090102 0.3440945 0.4355089 0.8184559 0.1664718 0.5464227 -0.4055094 0.09587967 -0.3569037 -0.9881628 0.8914976 0.6821585 -0.09832203 -0.3323463 -0.0161947 -0.006318212 
0.8959312 0.9403601 -0.663063 0.2289578 0.9575467 -0.9816191 0.8930228 0.110598 0.2871494 -0.9062057 0.3319099 -0.5929046 0.5800595 0.03639233 0.1681756 0.04613364 0.851243 -0.4249614 0.204733 -0.6765523 0.4201495 0.4384093 -0.4708847 0.37591 0.9296498 0.1705836 -0.08875215 -0.6615782 -0.08558691 -0.6275957 
-0.2625335 0.3352339 -0.6075711 0.4432745 0.8548896 0.6277881 0.115697 -0.3441964 0.8123794 -0.722991 0.4980805 -0.9870706 0.05790246 -0.8796227 -0.8979166 -0.9464123 -0.8296103 -0.5905032 -0.7878098 0.6140935 0.4461105 -0.4969426 -0.4813942 0.3219163 0.7777977 0.9691586 0.1062864 -0.8208222 0.1835493 -0.7548885 
0.5850751 -0.216895 0.2562353 -0.3675607 0.4151878 0.381823 0.9395933 0.5259852 0.4472029 -0.2882742 0.8047967 0.9854333 0.740618 -0.1101669 -0.6205494 0.008897901 -0.8611543 0.5899351 0.4623272 -0.5061011 0.2538752 0.2944705 0.9849861 0.106824 0.025967 0.4743769 -0.558718 -0.9581792 0.8444078 -0.853189 
0.2464613 0.5998416 0.830869 -0.8929451 -0.5449729 -0.9492509 0.09630001 0.6810942 -0.852839 -0.001549125 -0.1735476 0.8398843 -0.5715327 0.7799222 0.4351263 0.7972555 0.2266074 -0.5446992 -0.6538715 -0.9502964 -0.1624023 -0.3968793 -0.4686836 -0.8538015 -0.5568092 -0.9314103 0.9286141 0.4452288 -0.5697999 -0.159778 
30
1
0.2099794 
0.1728388 
0.07964838 
-0.8115706 
0.6970603 
-0.3440195 
0.7885852 
0.7219098 
0.9872859 
-0.553174 
0.6675582 
-0.6371348 
0.9941342 
-0.928669 
-0.8917768 
-0.8975682 
-0.8308151 
0.2513942 
0.947006 
-0.9452546 
0.6850214 
-0.430936 
0.1853763 
0.8711307 
0.7191033 
0.3711118 
0.5300348 
0.9219799 
0.9149885 
0.5289156 
6
30
0.8800929 0.9833069 -0.1215659 0.8399332 0.1491963 -0.2380551 0.5205789 0.19459 -0.6425495 -0.479185 -0.1337742 0.2788367 0.7399564 -0.09217322 0.3315105 -0.03514493 -0.1910301 -0.3438283 -0.9359329 0.101787 0.09573758 -0.4581455 -0.5180442 0.4086723 -0.5213559 0.7556858 -0.1309053 -0.2863697 -0.1409858 0.2539019 
0.4815728 -0.5338383 0.5207481 -0.536783 0.2980027 0.8240762 0.07351673 -0.6494238 0.1080323 0.8452196 0.8081269 -0.725553 -0.9613521 -0.5023 0.1647903 -0.1043299 -0.7680292 0.9038568 -0.6221452 -0.1701611 -0.02421272 0.8705225 -0.6774247 0.004091144 0.3623995 -0.5642385 0.2097622 0.6959891 0.8954372 -0.7332401 
-0.8718684 -0.8298109 -0.2602834 -0.6350915 0.00422442 0.1603111 0.5265248 0.5249071 -0.4848896 0.4272065 0.9489527 0.1178914 0.5060866 -0.8452878 -0.9309483 0.7598336 -0.2625221 0.453464 -0.2344164 -0.5944841 -0.8119235 -0.3117741 0.6832609 0.02100003 0.3300335 -0.4245437 -0.3499306 -0.2603325 0.8715489 -0.8401709 
0.8386652 0.4122007 -0.53878 -0.145703 -0.8927121 0.03432381 0.6736028 0.3101773 -0.4045411 -0.9625783 -0.3830353 -0.9379539 -0.4239465 -0.2635618 -0.5485592 0.8989787 -0.8773029 0.3451495 0.7687016 0.6193099 0.8251748 -0.5554876 0.3160441 0.3482253 0.5886488 0.880964 0.4586003 -0.9903176 0.1322392 -0.8163104 
-0.4181229 0.9529431 -0.4200236 -0.72877 0.1173593 -0.9979396 -0.1653408 0.07373178 0.7833643 -0.2908269 -0.523484 0.3864617 0.8415418 -0.9858818 -0.1440033 -0.1007174 -0.57126 0.2200171 0.9519482 -0.6547554 0.1116942 -0.9898524 -0.6886227 -0.7127306 -0.7508273 0.8640811 0.1025881 0.9708605 0.2857754 0.9262736 
0.2095178 -0.4195951 0.4190387 0.7593558 -0.04621589 -0.134555 -0.7964263 0.5134368 -0.4637073 0.3427362 -0.2772833 0.8656976 -0.6444306 -0.6082056 -0.2960154 0.2440735 0.9295158 0.6353197 0.1670772 -0.9654727 0.6278152 0.706517 -0.3058945 -0.3635756 -0.2904609 -0.2646536 -0.02690136 -0.2825657 -0.6041689 0.5328333 
30
1
0.4059229 
0.5735233 
-0.699995 
0.5138412 
0.5502427 
-0.2444113 
0.2883866 
0.7686567 
-0.9078741 
-0.6807284 
-0.7956088 
0.1254491 
0.6933534 
-0.2302855 
-0.1532828 
0.9175992 
0.4867918 
-0.6526728 
0.8309734 
0.2715509 
0.3302564 
-0.7469406 
0.6145368 
-0.5344524 
0.7967448 
0.7698762 
0.9415138 
0.5874772 
0.8286769 
-0.09028995 
6
30
0.8800929 0.9833069 -0.1215659 -0.7902153 0.1491963 -0.4048592 0.5205789 0.19459 -0.6425495 -0.479185 -0.1337742 0.2788367 0.7399564 -0.09217322 0.3315105 -0.03514493 -0.9419622 -0.3438283 -0.9359329 0.101787 0.09573758 -0.4581455 -0.5180442 -0.1662713 -0.5213559 0.7556858 0.547276 -0.2863697 -0.8411067 0.2539019 
0.3019488 0.9011271 0.5207481 -0.536783 0.2980027 0.8240762 -0.7680008 -0.6494238 0.1080323 -0.5942376 0.8081269 -0.725553 -0.9613521 -0.4425896 0.1647903 -0.3661131 -0.7680292 0.9038568 -0.6221452 -0.1245784 -0.02421272 0.8705225 -0.6774247 0.004091144 0.005669713 -0.5642385 0.2097622 -0.0635215 0.8954372 -0.7332401 
-0.8718684 0.6674652 -0.2602834 0.5208316 0.00422442 0.1603111 0.5265248 0.5249071 -0.4848896 0.4272065 0.9489527 -0.5535491 0.5060866 -0.8452878 -0.9309483 0.7598336 -0.5710728 0.453464 -0.2344164 -0.5944841 -0.8119235 -0.3117741 0.08146536 0.02100003 0.3300335 -0.4245437 -0.3499306 -0.2603325 0.8715489 -0.8401709 
0.3237774 0.4122007 -0.53878 -0.4976274 -0.8927121 0.03432381 0.6736028 0.3101773 -0.4045411 -0.9625783 -0.3830353 -0.6688437 -0.4239465 -0.1225404 -0.5485592 0.8989787 -0.8773029 0.01794064 0.7687016 0.6193099 0.8251748 -0.5554876 0.3160441 0.3482253 0.5886488 0.880964 0.4586003 -0.9903176 0.1322392 -0.8163104 
-0.4181229 0.02125537 -0.4200236 -0.72877 -0.4147042 -0.9979396 -0.1653408 0.07373178 0.7833643 -0.2908269 -0.1563894 0.3864617 0.8415418 -0.9858818 -0.1440033 -0.1007174 -0.57126 -0.9137063 0.9519482 -0.6547554 -0.1697077 -0.9898524 0.6101007 -0.3804249 -0.7508273 0.8640811 0.1025881 0.9708605 0.2857754 0.9262736 
0.2095178 -0.4195951 0.4190387 0.7593558 -0.04621589 -0.134555 0.6142418 0.5134368 -0.4637073 0.3427362 -0.2772833 -0.1107494 -0.6444306 0.1828426 -0.2960154 0.2440735 0.2074746 0.6353197 0.1670772 -0.9654727 0.6278152 0.8924136 -0.6061471 -0.3635756 -0.2904609 0.2618968 -0.02690136 -0.2825657 -0.6041689 0.8701179 
30
1
-0.3398944 
0.5735233 
-0.699995 
-0.5528555 
0.5502427 
-0.2444113 
0.2883866 
0.7686567 
-0.9078741 
-0.3281089 
-0.7956088 
0.1254491 
0.6933534 
-0.2302855 
-0.1532828 
0.9175992 
0.4867918 
-0.6526728 
0.8309734 
0.2715509 
0.3302564 
-0.7469406 
0.6145368 
-0.6164825 
0.7967448 
0.7698762 
-0.9819832 
0.5874772 
0.8286769 
-0.09028995 
6
30
0.4492755 0.9833069 -0.3027655 -0.7902153 0.1491963 -0.4048592 0.7958126 0.1198794 -0.6425495 -0.6177101 -0.1337742 0.2788367 0.7399564 -0.09217322 0.3315105 -0.03514493 -0.9419622 -0.3438283 -0.9359329 0.101787 0.09573758 -0.4581455 -0.5180442 0.8914893 0.3647508 0.4375331 -0.1309053 -0.2863697 0.5536919 0.2539019 
0.4815728 -0.5338383 -0.4641637 -0.536783 0.2980027 0.8240762 0.07351673 -0.6494238 0.1080323 0.8452196 0.8081269 -0.725553 -0.9613521 -0.5023 0.1647903 0.2738249 -0.7680292 0.9038568 -0.6221452 -0.1245784 -0.02421272 0.8705225 -0.6774247 -0.4376658 0.005669713 -0.5642385 0.2097622 0.6959891 0.298176 -0.7332401 
-0.8718684 0.6674652 -0.2602834 0.210971 0.00422442 0.1603111 0.5265248 0.5249071 -0.2491428 0.4272065 0.9489527 0.1178914 -0.3574384 -0.8452878 -0.9309483 0.8826237 -0.7306175 0.453464 -0.7734704 -0.5944841 -0.2681409 -0.3117741 0.6832609 -0.2594222 0.3300335 -0.4245437 -0.3499306 -0.2603325 0.8566856 -0.8401709 
0.3237774 -0.4838694 -0.53878 0.4848957 -0.8927121 0.03432381 0.6736028 0.3101773 -0.4045411 0.8533752 -0.3830353 -0.6688437 -0.4239465 -0.1225404 -0.9675562 0.8989787 -0.8773029 0.3451495 0.7687016 0.6193099 0.3813333 -0.5554876 0.3160441 0.3482253 0.5886488 0.880964 0.4586003 -0.9903176 0.1322392 -0.8163104 
-0.4181229 -0.3615185 -0.4200236 -0.03769004 -0.4147042 -0.9979396 -0.1653408 0.07373178 0.7833643 -0.2908269 0.003279567 0.3864617 0.8415418 -0.9858818 -0.1440033 -0.1007174 -0.57126 -0.9137063 0.562829 -0.6547554 -0.06751335 -0.7908995 -0.6886227 -0.7127306 0.2167703 0.8640811 0.1025881 0.9708605 0.2857754 0.9262736 
0.2095178 -0.4195951 0.4190387 0.7593558 -0.04621589 -0.134555 0.6142418 0.5134368 -0.4637073 0.3427362 -0.2772833 0.8656976 -0.4547962 0.7039795 -0.2960154 0.06518519 -0.1849226 0.6353197 0.1670772 -0.9654727 0.6278152 0.7872257 -0.6061471 -0.3635756 -0.2904609 0.2618968 -0.02690136 -0.2825657 -0.6041689 0.5328333 
30
1
-0.3398944 
0.5735233 
-0.699995 
-0.5528555 
0.4506077 
0.1803688 
0.2883866 
0.7686567 
-0.07886851 
-0.6807284 
-0.7956088 
0.1254491 
0.6933534 
-0.2302855 
-0.1532828 
0.9175992 
0.4867918 
-0.6526728 
0.8309734 
-0.4345111 
0.3302564 
-0.7469406 
0.6145368 
-0.5344524 
0.7967448 
0.7698762 
0.9415138 
0.5874772 
0.8286769 
-0.09028995 
